android -0.510266025934 -0.0451273301114 0.130368462848 -0.382716089918 -0.515522697624 -0.0701910173477 -0.350867345822 0.389103127871 0.665352904996 0.0327358175136 -0.51048812661 -0.0887350797292 0.038132726036 0.131250813347 -0.132469121854 0.0718900541902 0.0214432294717 0.706228583975 0.00502660974103 -0.269297246342 -0.136263418981 0.730895621567 -0.575952832331 0.118767164487 -0.54559851748 -0.776078205454 -0.0249894506366 -0.35925477378 -0.735631355837 -0.226345687457 -0.362353452301 -0.47642338197 0.15493306526 -0.0804979784442 -0.53053798831 0.503805431856 0.107841988211 0.737937886657 -0.355616377334 -0.475203371097 0.287614266056 0.0464777847668 -0.178536825308 0.732023443409 -0.0806406744301 0.589549207898 -0.151117329217 -0.2927999959 0.747328178599 -0.544572280983 -0.551366279304 0.0876498905523 0.140910339066 -0.430884061564 -0.38936970782 0.681942816562 -0.323800166203 -0.32761161036 -0.127389835457 -0.0679986428866 -0.260451789149 -0.190279197718 0.527124788769 0.524441507717 0.0725553391902 -0.904166000763 -0.182375405739 0.945579076196 -0.643193898673 -0.26042588207 0.561515133673 -0.521734550619 -0.287365790155 0.796448986876 0.194137263764 -0.711011777893 0.258997050181 0.0168504316007 0.119030582573 0.354577374331 0.215885676233 0.459668724369 0.37442491155 -0.129706691078 -0.355413454883 -0.117656585406 -0.176241670562 0.692608071788 -0.0711724625846 -0.511280308869 -0.4321264391 0.0376748626641 -0.161016338534 -0.361328225767 -0.685552904413 -0.1388724913 0.0539968271116 0.111459944147 0.0218366952267 -0.124172579521
<number> 0.132220924348 0.50591379885 -0.0922995888486 0.238376016957 0.403292090282 0.116872804109 -0.22132197139 -0.445518225875 0.414961517703 0.122776891355 0.211353804406 -0.31622789515 -0.377551031635 0.106936047956 -0.163743749618 -0.641337787524 0.212089890157 0.18323066009 -0.200414786564 -0.295661711559 0.166427983282 0.000498124341237 -0.111345770682 -0.225916887871 -0.000443807708934 -0.489788160422 -0.0218813262429 0.144435409476 0.248091856162 -0.423988586788 -0.391639602283 -0.146048783177 0.885261142681 -0.126538824192 0.134371080062 0.103283990586 -0.49063075869 0.284182177612 0.0879135965323 0.131797847114 0.447213268786 -0.454987738901 -0.724313633642 0.120575816086 -0.0756477992066 -0.23917897749 -0.454846243619 -0.640236374063 -0.050217009855 -0.111886191932 -0.353189798566 0.0781249722235 0.486370574499 0.60696469154 0.176276756084 -0.730226210301 -0.834357026162 0.322256960939 -0.0160872275968 -0.113795022271 0.321396288733 0.256467704997 -0.270895937576 0.677367297955 -0.110801742333 -0.162515986575 -0.200897351692 0.169822776408 0.00288514835631 0.454011650915 0.308476193458 -0.323408268333 -0.561404923537 0.307189301726 -0.102824280127 0.132171654038 0.197997469389 -0.673736298755 -0.530107450789 -0.247355792602 -0.810376548405 0.518385968487 0.295819820008 -0.442148937696 0.346324020108 0.596010482872 -0.260425990354 -0.544500885799 -0.125225670024 0.500159732719 0.764257188596 0.401358040102 0.0561950859195 0.155981581749 0.398875170715 -0.108772343563 0.347825503915 0.289461572285 -0.329931679752 -0.147962691944
the 0.345140962449 0.345389965517 0.0715642732658 -0.30273722278 0.416313472975 0.0828644155208 0.392383322427 -0.149124458061 -0.521660858072 0.119950967644 0.611353770606 0.111574895815 -0.221449062621 0.4733084312 0.0709394907085 0.147489198948 0.0858231777513 0.451072973116 -0.222967418954 -0.169234453533 -0.721928929234 0.133837104253 0.409681035359 -0.0587435837679 0.327373828783 -0.45295302975 -0.135267863675 0.104495405269 -0.0477424348866 -0.239610143981 0.153478782228 -0.306056220385 -0.00457715375592 -0.472452807051 -0.294400974744 -0.410536997689 -0.0243693130243 0.380878603919 0.145685823596 0.642933933882 -0.187074695701 0.630651392712 -0.254468197331 -0.0733888945669 -0.0871328231202 -0.429221406537 -0.662399191446 0.131857848745 0.1514712788 -0.470454925959 0.486929409635 -0.261222087925 0.12040112057 -0.385731728184 -0.0396658971567 0.129635413042 -0.530987740233 -0.208644836566 0.442926051322 -0.361152598822 -0.268858178093 -0.123003156318 0.753314848338 0.287330313926 -0.197787143482 -0.798186274776 -0.641917327474 0.142464440194 0.502457810408 0.165068356313 0.266105040227 0.12951902796 0.26182515095 -0.116985138346 0.548069113765 0.418362648989 -0.198377704854 0.140457801497 -0.430173611836 -0.273649834047 0.264520422608 -0.772349665258 0.343030908471 -0.251334419904 0.0864200082166 0.665546404767 -0.309540680792 -0.19776997422 0.545691160875 -0.522194842443 0.444120416809 -0.471877500963 -0.89220591531 0.342061750288 0.256614733402 0.20235346654 0.489608320733 0.420392632168 0.102199814924 0.164080341779
i 0.0952248875742 0.491461218527 -0.568521197463 -0.15884173104 -0.734582391715 0.0553467426917 -0.14132539542 -0.8760964958 -0.299102719771 0.470382311206 0.0319976561022 -0.285386521447 0.0249595344313 0.505255556605 -0.044097714093 0.4146554212 -0.049450042694 -0.680899597805 -0.0836107102534 -0.208601409839 -0.16940362209 -0.0210336125626 -0.112375943844 -0.0888846246034 0.0564824595166 -0.308087668043 0.135822610997 0.0269045750351 0.377515813866 -0.155849824679 0.106147508472 0.406645074854 0.722593673423 -0.358056324395 0.148579997537 0.245146257915 0.0355441678991 -0.27810145805 -0.58681136224 -0.214729536522 0.592575310985 -0.308012681622 -0.261717698878 -0.293454388606 0.0868301244474 -0.0434864620782 0.27199105479 0.0847336353874 0.286997692071 -0.151891559584 0.375706658029 0.401614684025 -0.408728680156 0.0265884206495 -0.532220339806 0.445300893999 -0.364183207737 -0.959337638367 -0.514234037529 -0.323829184729 -0.199374874328 -0.0339004995717 0.102199683424 0.666594647497 0.189901294862 -0.20338520071 -0.568777928843 0.373422145714 0.0270613481831 -0.808366387085 0.431217637683 -0.213841696961 0.264727769529 0.534860448554 -0.623904635454 0.588990896464 -0.69207680273 -0.157627450945 0.715872295763 0.020323459152 0.738691969627 0.422272829326 0.0163368617202 0.824453053183 -0.0478191332198 0.228583807191 0.400951497818 -0.496814994572 -0.40988160196 -0.00192030187107 0.0421930622151 0.213895458931 -0.527451499745 0.307380020677 0.342970916049 0.12215465223 -0.40843425468 -0.540268414587 0.565045266786 0.312869571936
you 0.2405851412 0.114887186289 0.231235425271 -0.468061241156 -0.395653830032 -0.346086360506 -0.00556465169397 0.0928324002562 0.498189202291 0.633221197004 -0.216801655964 -0.17100657049 -0.44784437826 0.381266882104 -0.0579305053373 0.307549600412 -0.134634519628 0.0949377235195 -0.118515993521 0.22123930596 -0.367373624199 -0.394568044582 0.721190741563 -0.167150925496 -0.140879883601 0.271941046829 -0.538469701407 -0.488514025527 -0.487776226211 0.100569080735 -0.12572533635 0.0631795987502 -0.77462016467 -0.115504175853 0.541137057557 -0.231939503117 0.370270383623 -0.160576296849 0.0484536553912 -0.140316124632 -0.832067790389 -0.0853330233082 0.104983065529 0.677002781145 0.0209950701101 -0.238628008164 -0.148999230014 0.0861682397982 -0.323512117455 -0.0447931463114 0.256930372241 0.525765674658 0.352966394279 -0.0843626716026 0.305495454227 -0.141666619541 -0.144044884554 0.581393182744 0.0297377735212 -0.183001340498 -0.549465089797 -0.183581524139 0.200155105031 0.109136134186 -0.0985807631044 0.0743708477357 -0.144649733947 0.556053914753 0.137701065538 0.270037128068 -0.00984790321136 -0.51967210576 -0.0930334410419 0.331611567039 0.0121001686009 -0.0679756010106 0.0729518193393 -0.257138197788 0.349383601556 -0.336958018138 0.466684668091 0.251560009697 -0.0686817122004 0.358300443754 0.428775378065 0.204687993494 0.692758872291 0.329986904136 0.181938032327 0.260289361999 -0.0440695691181 0.0796539686258 0.203277309817 0.562816699342 0.111492870059 -0.342834944725 -0.628233004145 -0.294356900526 -0.706351600781 0.236099000634
for 0.0519296899686 -0.30180111692 0.666319223661 0.369029811758 -0.682495778117 -0.197798172102 -0.12623863136 0.30537563984 0.141655637025 -0.462221016941 0.487489158993 0.348376092342 0.579293432634 -0.573338303579 0.301974938206 0.266892608624 -0.0173610676998 0.242259849607 -0.0287138230541 0.190630916175 0.252258339265 0.164019154161 -0.572046950342 -0.402128502914 0.0938567875664 0.22894215035 -0.670155488044 0.505248892958 0.145760040158 -0.286117602401 -0.31376620902 -0.0626432774416 0.362039153626 -0.192862020538 0.295646299762 0.0043889245394 -0.0350890253079 -0.226405193049 0.332680310669 -0.401158997622 0.19611957056 0.454804133181 0.131092560273 -0.228118386799 -0.669344555389 0.636396687765 0.0547327875553 -0.501990775066 -0.312503040122 -0.462777520901 -0.0269933138059 0.840596079975 -0.182269007514 0.261756645785 0.285777422169 0.48674439335 -0.513644444325 0.0742923427695 0.262937560079 -0.537317645751 0.463070728945 0.393573812598 0.393257194992 -0.31555036485 -0.522373071324 0.516905480893 0.0440794825551 -0.0579715610435 0.248412833121 0.164583694256 0.296145958434 -0.189725428503 0.337053644753 0.174428761002 -0.156614367257 0.0617539211116 -0.409154367693 0.104133349306 0.71523021483 -0.0285928400946 0.576215126179 0.188285713515 -0.530059702602 -0.164219158122 -0.157937741781 -0.335009757425 0.607814073779 0.792779673776 0.0629031874299 0.376863747056 -0.57085776931 -0.0391268351828 0.160551431752 -0.272222694982 -0.19613931624 0.00819018807313 0.0530592800334 -0.207928189707 0.684285043921 0.289683795384
a -0.507887452634 -0.259297847954 0.534290729788 -0.0465350498587 0.256630526849 0.104604182374 0.587864761764 -0.0268272516935 0.0202910930326 -0.592445080242 0.0453110933682 -0.276015602499 0.187694342213 -0.388658816537 -0.155938107923 0.287299271331 -0.169667970552 -0.740331114257 -0.629608342604 -0.477176258298 -0.0366968209524 -0.15032363352 -0.397151803091 0.0584295198583 0.167222398095 -0.0737182070714 0.132845830915 -0.0791821727194 0.840617979688 -0.685614952692 -0.0816179236878 0.0758760582929 0.326795743042 -0.199539590289 -0.370198393378 0.0238380707095 0.130224996533 -0.00548973247686 -0.0647920543666 -0.483613192293 0.0967060266651 0.321469333117 -0.455603812889 0.459719824513 -0.0539349613771 0.865155231772 0.674736706941 0.486019561662 -0.0486154431178 0.282476375912 -0.0615489415641 -0.098803417611 0.0775021046569 -0.178305005455 -0.382846283828 -0.560056028382 -0.308152352329 0.245775625935 -0.655007957341 -0.0278938584721 -0.252708736279 0.607702075523 -0.309516462106 0.179783100158 0.00551415301178 -0.434282865717 0.115565610975 0.0437414798342 -0.608921851193 0.70798918629 0.4205047464 0.418700304774 0.0469309624734 0.375553925541 0.182688124281 0.290399736881 0.826104374997 -0.082598640779 0.450513496008 0.97710363643 -0.336531212025 0.801276833463 -0.116658642949 -0.122773906156 0.224446036028 -0.479246278694 -0.692993368591 -0.268735022653 0.335887606502 -0.333011265231 -0.564435897855 -0.0157343945546 -0.004984297259 0.371647315785 -0.0854455161857 0.85053351281 -0.0764180660458 0.0756137875156 0.0867552813668 0.0434381755609
to -0.605807846993 0.376447429376 0.0482167498335 -0.226058169252 -0.0280132824639 -0.394247877213 0.573120698955 0.439849331675 0.142101789924 0.106898710581 -0.120121365827 -0.466541632798 0.155696554103 0.223579576059 -0.506143506707 0.110154822384 0.442403562333 0.382298451705 -0.398621929268 -0.309548386489 -0.392315609828 0.101829785373 -0.779199179014 -0.35271147749 -0.127108234858 -0.0278303305718 0.376487682781 0.0202729608254 -0.239813678221 -0.337753287236 0.000991038703938 0.15019381087 -0.244793596029 -0.127388817376 -0.0822361835751 0.0723757327147 -0.562733848181 -0.413108738824 -0.31730162621 0.0572845047956 -0.803048785025 0.025978201603 0.143000404804 0.172880028934 -0.326604495311 0.603262077879 0.567414889101 0.843022337113 0.223586244671 -0.0136140721175 0.446740099908 -0.0318704208165 0.278238290287 -0.403309630569 -0.617770745207 0.0647006369875 0.279486521148 0.166278263521 -0.341732105368 -0.469313280498 -0.360263630833 -0.646480532361 0.387025036294 0.258335286378 0.448938278092 -0.214715205276 0.600520897809 -0.139193777324 -0.509587372936 0.147156845093 0.040031896016 0.11278053138 -0.458782389316 -0.165187538564 0.256456720763 0.434067463504 -0.254497576316 0.393450536469 0.10939250678 0.496150365745 -0.000101526867538 -0.409550409199 0.36907828905 -0.559335469577 0.468402641044 -0.148426615178 0.11619927726 0.321028477197 0.580013116136 0.44907004747 0.849000421799 0.49820338545 -0.287463250733 -0.0380355647163 -0.257563386615 0.176296234887 0.418399337137 -0.587648120787 0.300559800536 0.366150414426
is -0.107692322175 -0.436333972833 0.261808937853 -0.29308466076 -0.229003470516 0.0240571044635 -0.517064915052 0.338365641967 0.626321629211 0.398320168847 0.383642223761 -0.207382882693 -0.387062431983 -0.170662558613 0.171506109313 -0.699687430829 0.59954233545 0.139545520016 0.203060597266 0.60373428021 -0.107493170985 0.129534921849 0.436574591228 -0.489164268355 -0.0331384560054 -0.316734028831 -0.0528011867863 0.57355197938 -0.101448787304 -0.224472058068 0.572208287889 0.203749130898 -0.312968907795 -0.105125870218 -0.242300980065 -0.208993000026 -0.779399085185 0.0236424843147 -0.106062020129 0.0818298814889 -0.1967461876 -0.257329684017 0.734199964738 -0.0428249656742 0.173016274485 -0.00647009946991 -0.150921862567 -0.527362697125 0.0494124509705 -0.565328154544 -0.21846788577 0.327636521215 0.105790615979 0.14453405366 0.0728440875152 0.0205471163278 -0.438540514888 0.201137606472 0.278180683503 0.040864789152 0.367956782109 0.107727333602 0.0752466896989 -0.40235265328 -0.0801786784823 0.149020955136 -0.352045211797 -0.10209517154 0.712430815045 -0.0761808522509 0.603573965056 0.195122970185 0.368476050844 -0.17737179236 0.380461632051 0.223187121381 -0.249646747665 0.438854928159 0.10158942456 -0.515352260415 -0.439380175062 -0.422610467798 -0.206003838458 -0.472775732651 -0.432615448201 -0.278775412188 0.269960440875 -0.422840218556 0.277034945156 0.027070573817 0.299312408847 0.471844755906 -0.509449993968 -0.500581349497 0.524350683933 0.061699478823 -0.0109105860204 -0.0354670848267 -0.649388174124 -0.187757881722
on -0.51309506908 0.50838427419 -0.161854199093 -0.392920558878 -0.431532013582 -0.474640441551 0.0113107811158 0.0418604385449 0.223835465621 0.78566891546 -0.0278298658243 0.361485380763 -0.378348865029 0.279324437773 0.239014216434 0.77354697719 0.946414185346 -0.0166835772562 0.760823893483 -0.00521952115809 0.362193453955 0.308335349422 0.142161235165 -0.229640100474 0.171305834061 -0.339958312769 0.941846660782 0.313071912165 -0.492340195743 -0.0464923420375 0.533422989793 -0.271146146416 -0.00936654841146 0.282799439314 0.0917265516373 0.175142528283 0.471768415905 0.360546060688 -0.266384197286 0.376646662338 0.487721370319 -0.215722999596 -0.255151433331 -0.256287444044 0.392109647978 -0.512683544696 0.370670502845 0.195506629103 -0.312234533392 0.279681122322 0.215112957007 -0.529054062182 -0.678688556631 0.163639855001 0.519075364202 -0.521148382037 -0.0754767754661 -0.394325538736 -0.470548195505 -0.123102728081 0.167295972444 0.314058850014 -0.333818994062 -0.692049407997 0.239892720007 0.625986473289 -0.377512868789 0.14671798402 -0.839821730443 0.417377306073 0.0842270060531 0.319061552718 -0.00700245675934 0.52360479093 -0.108037893871 0.425548277735 -0.252737787189 -0.325382055354 0.151055060024 0.175196535009 0.417092502319 -0.824381985253 -0.728276511988 0.0588864755462 0.767544631603 -0.265846622109 0.401392841104 -0.390192125723 0.42603486216 0.24726382292 -0.163992667783 0.330291669836 -0.0404804651702 -0.405284651955 0.355494056363 -0.0531977730019 -0.426728837766 -0.225844912563 -0.0560734610338 0.406494192725
of 0.0821836681437 -0.402190323435 -0.666174132914 0.710794441686 -0.229629991265 -0.0517858506014 -0.326665632762 -0.0395678617756 0.482843930111 0.358197622994 0.145166752687 -0.802816585204 0.132861854502 -0.181638785257 0.0425743266006 -0.735841286813 -0.126482603327 0.393160637479 0.429533445937 -0.285177637718 0.0738004776736 0.576446118516 0.0474860494959 0.946634331852 -0.341815753707 0.409436119711 0.0534724973683 -0.119305787622 0.042252368312 -0.387037284484 0.386228047587 -0.285159294801 0.457234782199 -0.772722442828 -0.549009287883 -0.0966311901459 -0.328467041347 0.377492337903 0.311649144301 0.70323843234 0.147164727273 -0.0571534967187 0.496573438267 -0.000976025522573 -0.242761268053 -0.0269711511136 0.0328752637476 0.464724456606 -0.658442987284 0.188390348288 -0.0975101218575 0.533015206194 -0.829727316125 -0.30163493922 -0.0470809482925 -0.380143234002 0.401986267095 0.405720761419 0.260464968256 0.332061961519 -0.13353405481 0.396105837837 -0.0899058125085 -0.180419474862 0.312320640363 -0.407622410736 -0.329927945419 -0.279901306825 -0.0668632443742 0.651484060481 0.104821113568 -0.242133928116 0.497909306192 -0.388319900806 -0.494097569283 0.0469348214385 0.524533472974 0.125705916485 0.402903612063 -0.188576937323 -0.0239387046051 -0.797937560172 0.0237922705567 0.476906392578 0.0995605174002 0.000363815699152 0.588952919751 0.596645246467 -0.0168721299978 0.0287304172484 0.468433923248 -0.00800248531055 -0.0797962504733 -0.518948987694 0.0438492589128 0.514326346648 0.0818866454858 0.312299238815 -0.0240419257516 -0.155668506284
my 0.590755608465 0.23917865938 0.13592153693 0.025576796243 -0.490016410545 -0.645199549801 0.0112559025342 0.0935098900463 0.231493808948 0.514700145654 0.030060874263 0.113444251658 0.106225622276 0.282554407649 0.422892241214 0.439389601159 -0.0392070418535 -0.213020962526 0.0335198388532 0.208446668097 0.285035432751 -0.0516057579933 0.347860209253 -0.0510375275287 -0.688361945606 -0.320955273622 -0.194691815459 -0.34691249294 0.0773472285487 0.0212243312289 0.586973108637 -0.511907084165 0.475214285293 0.368966844175 -0.42787293876 -0.200458428269 -0.218718097372 0.279371324204 -0.832945702748 0.0879701273631 -0.436047488151 0.210574245353 0.256189092174 -0.298477563487 0.141877450745 -0.300736524873 -0.258588133832 0.596182461762 0.69054384844 -0.230596600098 -0.0564218342074 -0.0699552029295 -0.13255184688 0.404166456846 0.273208842308 0.408938038363 0.0732817806298 0.106900778228 -0.0344025038139 0.00673915951236 0.561028609347 -0.520148845073 -0.385443999147 0.319191037911 0.610931738037 0.195267369601 -0.0691179822116 -0.340195160769 0.170959931953 0.139859207282 0.461928811966 -0.606454958908 -0.110556160196 0.154887824371 0.473196931312 0.140911863523 -0.553938123705 0.0938191386253 0.768835532959 0.18526863875 -0.0625396707519 -0.210961128602 -0.364779388083 0.0141095887563 0.233302384689 0.107140342599 0.247126009696 0.0296043558783 0.00584273782026 -0.334881462288 -0.479447434388 -0.623362562589 0.61995839788 -0.24666691761 0.499830473684 -0.268989729272 0.00572578232092 -0.708961380658 0.0414455160645 -0.543775867092
and 0.629473876294 -0.873952365802 0.313524980472 -0.351132478544 -0.400817619846 -0.941122365742 0.109911326926 -0.753724165646 -0.278356429708 0.421668174431 -0.0679465394541 0.147404267901 0.465418699135 0.114937784409 -0.177605758027 -0.17047684767 -0.154289527619 0.159612649368 -0.27899373291 -0.55760030572 0.226071659412 -0.477200196281 -0.303463516436 0.035070611303 -0.239467760277 -0.104410421365 -0.132719049508 -0.203336761949 0.0427700032231 0.0702595193163 0.00701002468813 -0.460847122147 -0.616862491568 0.477694493553 0.158488412917 0.421556152677 0.571345077985 -0.599128287779 -0.529841633379 0.183480691832 0.249418664972 -0.711433585275 0.314042718851 -0.0843924443084 -0.00673501338578 -0.273036480182 0.154469563588 0.0120800367727 -0.249334483456 0.00283976430738 -0.595746754767 -0.19831573381 0.353515498729 -0.314569965336 -0.0759925828746 0.0490506050345 0.10695498076 0.680832631328 0.61774631874 0.528681304419 -0.705079893574 0.717583042124 0.179486554352 0.147403694556 0.091312729276 -0.0118673508537 -0.306174627926 0.0327300685467 -0.669745147476 0.0158773476141 0.324034843339 0.288475851182 0.231535872933 -0.0437309071869 -0.65987591465 -0.207662414883 -0.381168829816 0.505438959997 0.0838932797633 0.391891722059 0.0210516459244 0.00862788829702 0.54243291243 0.520325484476 -0.473370565377 -0.427633992185 0.348554228681 0.509065887872 -0.0213532272472 -0.418563263313 0.231435656301 0.143127857097 -0.064426458816 0.30950620838 0.134581712053 -0.686159070381 0.0593266600301 -0.204612221328 0.300537865159 0.077433026198
lol -0.199153691851 0.462294418709 -0.825349118018 0.35920609675 -0.0708819299928 0.669205171492 -0.00340587653946 0.59111295582 -0.703110110864 -0.313921000636 0.273781086771 -0.705352249133 0.283360281963 0.363266001426 -0.76190231622 -0.317769989647 0.0423943412815 -0.170919487434 -0.426799027551 -0.114234834192 0.104860864754 0.0657409650706 -0.198977244388 -0.108706847257 -0.023806565563 0.202785091184 0.251382190349 -0.397164895247 -0.189050274785 -0.477944959795 0.29231397953 -0.28940214865 -0.880918818409 0.00918938275986 0.103640004402 -0.216157080344 -0.132391634374 -0.883524636424 0.261790057098 0.471713225837 -0.189750633392 -0.0208360406815 -0.761678659446 0.442181776742 0.431494624476 0.0647780070233 0.249251411782 0.443688220262 0.349456102267 0.249351414635 -0.307254911524 -0.0499965602568 0.681874069698 0.404326171383 0.227836743957 -0.0923457834193 -0.0822478998348 0.269516212627 -0.582291461472 0.540914996711 0.55232090882 0.181577737851 0.496899007267 -0.0617341631107 -0.170227439385 0.355448775186 0.598026523026 -0.0469543885182 -0.167238953415 -0.0396435289654 0.308156212887 0.0960132709679 -0.0869524718596 0.175158884633 -0.179616730368 0.359046877853 0.292225504493 -0.0929504899086 0.323225959113 0.895526254522 -0.269608416843 0.0805058025421 0.446817371332 -0.161346873184 0.217958552276 -0.520218867167 -0.556108814675 -0.0134436641977 -0.158090751595 -0.672073260192 -0.410221116497 -0.0821810291387 0.145917518499 -0.0884600653924 -0.371149288482 -0.113510474024 -0.0450193069095 0.0771163221142 -0.101700198283 0.200603817912
in -0.441940231049 0.0888100655601 0.798003330399 -0.350786193607 -0.0501093021028 0.156346552073 0.0312398948812 0.216713202488 -0.00905699329878 -0.100763312034 0.1785997248 0.0223063779255 0.0453315989834 0.402505713495 0.496770240632 0.0227449229685 -0.603075180703 0.317654214238 0.117518402645 -0.0145756800695 0.279050262551 0.164627285604 -0.318466113859 -0.451964094882 -0.710787966085 0.110130690455 0.19690332703 0.677386509064 0.367612164554 0.551038431517 0.0485087338567 -0.042909746662 0.0839611100208 0.724633387048 0.159533191759 -0.0391587294848 0.47150248656 -0.268727155559 -0.386942762579 0.534104802515 -0.573754790771 -0.774048103619 -0.327346945731 0.709790771555 -0.095543714911 -0.00024076066794 -0.57497823969 0.313760755905 -0.521510324805 -0.158435064033 -0.02347803414 -0.578826470321 0.362375524894 0.0704805766146 -0.0254913549572 0.284999326396 -0.0308245808756 -0.550353745211 -0.0446310174034 -0.354255673891 -0.480025914128 0.259689714583 -0.14883260652 0.573316634869 -0.533518884865 -0.156041837233 0.226563919396 -0.547526126525 -0.0150114598752 0.576791271036 -0.0195859930399 -0.432797687161 -0.408741244626 -0.341693427371 -0.324326272114 -0.579725460554 0.177353899517 0.682107503201 -0.396188582277 0.0836662844624 -0.0853008941216 -0.14325789525 -0.148597098219 0.503754283223 0.47817881467 -0.660835483012 0.384309206573 0.149959192621 0.799061886175 -0.688364395467 0.375207841677 -0.209727049194 -0.119931761174 0.0832481613729 0.00725181645883 0.0363417437005 -0.0555426681902 0.556573905728 -0.00381287694442 -0.23761576171
just 0.0824941752368 -0.0848802231495 0.385643493599 -0.098117444793 -0.476939710531 -0.650256711643 0.397855608228 0.427651214038 -0.333217949494 -0.469723896783 0.475491642245 0.752227820988 0.432613388032 0.385117814892 -0.375241009804 0.040748140494 -0.408742338854 -0.841239051716 -0.0356312974157 0.306281819191 0.23677047737 0.154107271069 0.184577728443 -0.0353662156811 0.117037384338 0.414473147618 0.308204049431 -0.680640774494 0.393103563983 0.224974337073 0.452449265263 -0.649126366568 -0.64858543554 0.883990917982 0.373124328333 -0.0270337794579 0.178132103321 0.166024481213 0.0339554001278 0.863678630261 0.278985971808 0.0648881274708 0.0388772341499 -0.664448771783 0.388723591666 0.206225697105 0.316131510907 0.652494113492 -0.406982501481 0.457683774328 -0.467419418616 0.823041372643 -0.104166722142 -0.0451333995158 -0.375330090209 0.238409020858 0.0175806359934 -0.183610758335 0.410245439221 -0.204977324618 -0.436547520702 -0.0611588375648 0.0373739437065 -0.17684686724 -0.203262330189 -0.0840163678058 0.0280329932619 0.310846960381 0.524956325736 -0.11661626841 -0.819120372501 -0.761723348082 -0.286405817588 -0.424742203824 0.252812184967 -0.456874108951 -0.0594100800174 -0.238430974607 -0.0208969818701 0.268286615437 -0.0827463432796 0.604092869985 -0.562174965099 -0.392176587894 -0.214847820864 -0.349859390718 -0.468317151762 -0.0330643581454 -0.174077131477 -0.221575255987 0.204543889978 0.0955535087729 0.502073206963 -0.321889558228 0.490662562222 0.636199514719 0.616619425433 -0.59989622916 0.165638898537 0.0843513194108
- -0.626883850988 0.0711855607809 -0.55749346835 0.528643677563 -0.440118745245 0.492657471702 0.207653723799 0.094356345299 0.44407169655 0.256076801697 0.179986744143 -0.425899530476 0.238810215911 0.340332054226 0.14857221206 0.0274260737719 -0.0282855966815 0.272340623699 0.432503083097 -0.245895952632 0.144007272888 0.195221519387 0.951958759705 -0.0803294753202 -0.568519892115 -0.245671698304 -0.0385382208816 0.106304989047 0.106547793605 -0.182453617066 0.108372016553 -0.623532740592 0.462820591993 -0.243889255058 0.0992651044723 -0.434798981589 0.0280109292791 0.0349193517517 -0.281516037956 0.233482263651 0.276258566558 0.380129169953 -0.477751983552 0.273324055812 -0.41397750962 -0.0729018450067 0.644503220386 0.34720379932 -0.346250461115 0.207716119504 0.660398194843 -0.510149359649 -0.00222000175498 -0.161263482744 -0.101941530922 -0.136657902311 0.0918039507458 -0.00989808655847 -0.406385460389 -0.802983167827 0.20725027935 0.446795995466 0.478030708939 -0.0172409484487 0.235823222632 -0.219641618418 0.333927036952 0.170939593825 -0.0736920393411 0.540740681382 0.496818198834 0.193319546314 -0.201194453403 0.0303022292593 0.105818959335 -0.547046794767 -0.0711695735659 -0.468284346801 -0.330045693784 0.243564004651 -0.705083879498 0.0741114074248 -0.647545346174 0.727601918609 -0.397806074044 -0.222875817303 -0.295508883896 0.629318158941 -0.00576685077542 0.458326817997 -0.582068001045 0.339685654323 -0.695192650097 -0.460197258823 0.151302767322 0.352498294106 0.115704851625 -0.20256169934 0.517811119912 -0.0246386252164
like 0.410317439767 -0.437828824267 0.247727306871 -0.470729307201 0.426167335094 0.213304384377 0.285789722956 -0.596940970939 -0.39897845908 -0.233273524101 -0.397322444092 -0.0693765817175 0.22222892112 -0.752885214802 -0.269676708625 -0.0516428165321 0.00299026451656 0.00203347528955 0.0359039255412 0.0018788722666 0.369094105643 0.691339995006 0.449236954292 0.0871261695084 0.208444536609 -0.345250755253 0.441937384796 -0.529211326374 -0.410681757666 -0.43437377892 0.679528225968 0.562817586635 -0.11148696609 0.472737654959 -0.635448793144 0.080573378774 0.306094550408 0.727756303253 0.678994475032 -0.123624402321 0.0210515578044 -0.459204926633 -0.142230902917 0.558683283945 -0.652913922649 0.799062127597 -0.373453669778 0.255788872398 0.291089441781 -0.444220111427 0.161135278464 -0.761816244699 0.153614785204 0.210649319801 0.030785158412 0.255888027406 0.174849174806 -0.163236574895 -0.176538581592 -0.352405305279 -0.135013923212 -0.577810007713 -0.741032809554 -0.503159842981 -0.669562293721 -0.265898700123 0.367261885913 0.352297741927 0.836241380889 -0.352961026665 0.521791253846 -0.650783148841 0.0056195128506 -0.373226640217 0.531218800135 0.0101672459796 0.648942000672 -0.0333666384456 0.64092874512 0.0699663627824 -0.340644924619 0.124124174226 0.374505939611 0.0929197640687 -0.512253041147 0.908119738481 -0.395341360082 -0.767804500087 -0.14883515949 0.167798200808 0.419079594904 -0.635272288437 -0.287411895166 0.0331069852495 -0.746256867633 0.144600045264 0.0361253017643 0.29366637235 -0.260036213645 0.281264154783
with -0.326863710416 0.175929464115 -0.544830593968 0.210139771587 -0.648636736684 0.166704302595 0.123745948474 0.236462399103 -0.00182680370544 0.389945897343 -0.457188298904 -0.376024826234 -0.7013377804 0.0760775832357 -0.326881828091 -0.374489523522 0.430351902235 -0.14022970474 -0.101084712833 0.405609246014 -0.207425667787 0.524990330313 -0.0254612036646 0.820740620418 -0.296692997192 -0.194525997092 0.135265840608 -0.00576169817871 0.294658659083 -0.43107692375 -0.277422181138 -0.43258657084 -0.306415575389 -0.401473038487 -0.437336021067 0.167772350781 0.53863970066 -0.0108315529468 -0.347686156427 0.182738319685 0.596241959059 0.172227422078 -0.794500839435 -0.480889227581 0.264782167813 -0.408331353833 0.299028162327 0.229556667448 0.246889654073 0.308704699805 0.606455596499 -0.327413370239 0.824677872779 -0.614975007927 0.203534749332 0.00814126052516 0.11370500217 -0.419604589706 -0.338777052348 0.611124145478 0.260919106686 -0.558893197253 -0.388624675894 0.242518937118 0.464492007278 0.26417448193 0.236864151849 0.022734748179 -0.485967595444 -0.181988666056 -0.45495215891 -0.328613319349 -0.06974597938 -0.258857312048 0.153414232647 -0.173567571467 0.0446005835305 -0.614266455772 0.591720810181 -0.204974292624 0.281066840924 -0.379755344323 0.142570956276 0.539525772388 -0.210886420453 0.667872789181 0.119955324296 -0.225064411931 0.190510599637 -0.910173260697 0.0508235029067 0.0215013137915 -0.049917728446 -0.416016376887 0.46326175244 -0.660613321923 0.214371055424 0.763726498126 -0.0649174403891 0.276044866784
at 0.474329595406 -0.0848468085492 -0.829754238485 -0.208069460718 -0.03032110857 -0.116121792849 -0.608656418351 0.199361216566 -0.0709996929116 0.136623751169 0.343885239145 -0.130465713851 -0.318139911946 0.133626108929 0.415574468898 0.0406953477639 -0.290679332739 0.236440888339 -0.394311676541 -0.795892491598 -0.595955683116 0.371584346858 -0.112309790083 -0.413051446657 -0.117129528325 0.389868458046 -0.4455592307 0.110611701071 -0.06682091331 0.221877754531 0.549527208153 0.602015603145 -0.118065435844 -0.382416753389 0.132392124983 0.945601582594 -0.716725499172 -0.634532613238 0.391062860392 0.109311984 -0.19991929796 -0.354214792949 -0.0911864735954 -0.236903261761 -0.655229437202 -0.586718961117 -0.113264585074 0.253301224665 0.106130349459 0.469954542759 0.850952821124 0.151835793417 0.0876398709944 0.0572924255271 0.407981450439 0.861549389413 0.634780450732 -0.359441843927 -0.170553948129 -0.26385186363 -0.0398181689288 -0.161822929092 0.170946680295 -0.184932950281 -0.229178767457 0.459068165796 0.603285093099 0.270992821784 0.0236484774276 -0.510185048296 0.0338220750373 -0.156906138942 0.694311941083 0.46801343896 0.388673434925 0.570944029561 0.477571197748 -0.503468283856 0.493492733662 0.513730998103 0.0320396034744 0.467934859577 -0.0613667582304 0.193018004875 -0.532847532482 -0.151042063798 -0.351743214772 0.142315631077 0.131877737715 0.255198026794 -0.414210826846 0.13867479082 -0.107957981644 0.0576352664898 0.186500423093 0.69493143232 -0.851511029704 0.24942654886 0.550307450844 -0.771468544874
u 0.344113654205 -0.407345465868 -0.434593831129 0.172939938023 -0.245284522692 0.1123999391 -0.0327725651667 -0.30003288287 0.0533311266334 0.335353082556 -0.366664611419 -0.0454553710672 0.617372939757 -0.688742710532 -0.223724928425 0.0827378911055 -0.24906638823 0.156223616263 0.249790742867 -0.227025949687 0.0277743618472 0.474360678012 -0.439789581176 -0.104911703822 0.147588109819 0.375373817966 0.0830949195391 0.845481969441 -0.764290441036 0.761996192682 0.283463314585 0.0549205198586 0.208032914666 -0.00628176086061 -0.440215992096 0.355446761955 -0.220053452844 0.0552678070889 0.152425041528 -0.677565186828 -0.647885277655 -0.444738793727 -0.275474892236 0.0648722900756 0.259527684432 -0.187743703511 -0.205894732638 -0.522127061779 -0.351695281424 0.249715687014 -0.111466273025 0.407766897985 -0.706138151147 0.198407278815 0.33957464498 0.412356291486 0.144542788602 -0.572978705586 0.703418342245 0.209173370258 -0.283680459031 -0.607140114594 -0.539409684314 -0.723756916495 0.268810278111 0.19110554628 0.533121093145 -0.410864816019 -0.183048286901 -0.0516231047609 -0.125914840324 0.45089984519 -0.442923999785 -0.156139072367 0.392575091911 -0.00940940035812 -0.332033993786 0.353509331677 -0.794551980326 0.21402016752 -0.10202093873 -0.0195476727743 -0.742488428053 0.142668197358 -0.245289663442 -0.0311065490054 0.513722012393 -0.485660338812 -0.12177398791 0.150043543462 0.13455984665 -0.124139558215 -0.377816816096 -0.17939973429 0.018855683772 0.589430004803 0.222133940662 0.0623013829123 -0.559814299524 0.0939435242435
it 0.560811040584 -0.750608923206 0.118971935685 0.14297241985 -0.121151235587 0.0929776502293 -0.0376203486279 0.0703255668843 0.214764374827 0.468079675692 -0.401139179973 -0.0816191678238 -0.856549488002 0.290245548672 0.291292869664 0.429725045387 -0.223562782868 0.0275050805339 0.657861704408 0.142796610352 0.228861569258 -0.16776458488 0.0253093248517 0.112496252369 0.21315234171 0.489731105867 0.734803637501 0.698291955605 0.493736796979 -0.0491698648514 0.692407027566 -0.0195236019822 0.0118269716808 0.891768740568 -0.131509174346 -0.468735971007 0.480383929634 -0.44666171832 0.0591522510378 0.0448946288462 0.0399926295249 -0.3505622911 -0.739871658259 -0.104292207307 0.794222426405 0.445498741191 -0.101842006637 0.0528850380894 -0.287290048815 -0.687583890069 0.313703984048 -0.447943036203 0.690908134791 -0.44749590587 -0.211617170857 -0.776048220906 0.453466870052 0.330461622364 -0.146548732373 -0.748694865775 0.259422308958 -0.614747442666 0.59848284077 -0.000888581851037 -0.156580234554 0.605799898644 0.0731378629345 0.146148384277 -0.51955043784 0.027496878609 -0.27765432202 0.038174203465 -0.30492056132 -0.297908380329 -0.0328519156748 -0.262113159897 0.114427938269 0.282591565026 -0.0938595111455 -0.0833250550437 0.118366859816 -0.31348736449 -0.136239891245 0.657786700017 -0.601162226003 -0.406468791009 0.0939940849387 0.871782511651 -0.658846406758 -0.447531162405 0.620820231689 0.32630269636 0.355787713331 -0.621514405638 0.901384053511 -0.0367082705294 0.186429754124 0.530268541277 -0.631712958961 -0.547379163239
so 0.592710546181 -0.883591189688 0.700508474797 0.0992863021587 -0.329046489788 -0.208555921908 -0.476373509384 -0.377439956036 0.326403128529 0.171029701741 0.146542436886 -0.454508848169 -0.0292972642018 -0.41809217454 -0.349547679424 0.350154887441 -0.538290907315 0.262694924461 0.685000802483 0.632718870394 0.178263048455 -0.402171554961 0.741371812608 0.178949997846 -0.468622445678 0.20279639723 0.0489697198255 -0.322195390929 -0.0607040639463 0.435170860751 -0.143218752948 -0.359041351638 0.206552382995 -0.633071534224 -0.347526958286 0.393448040072 0.684254279219 -0.354343662116 -0.793191273832 0.229892968909 -0.149037665824 0.222414225576 -0.0136484210756 -0.142497971986 0.403993023136 -0.275247989545 0.857263087318 0.246711097813 0.515960067124 -0.537078626483 0.0310397866233 0.19344059986 -0.0342874681778 -0.0149363334705 -0.422058169651 0.658134697183 0.237103209326 0.381640032235 -0.17071190904 -0.646793451535 0.386321325157 -0.157614238106 -0.204364367688 0.251904440427 -0.115245382071 -0.222917297493 0.0361096983735 0.517700924856 0.42386697143 -0.464660832108 0.300616868684 0.213383523255 -0.0204202260702 0.313671886812 -0.0791111499192 -0.715709203222 0.366929427963 -0.0268708269812 0.833414335334 -0.663111638467 -0.23426511363 0.340274603297 0.201292604743 0.0336540192435 -0.396225245779 -0.246367327732 -0.623421118533 -0.134068776875 -0.76563800599 0.195108750459 0.894801614593 -0.0214841589121 -0.273635329268 -0.0492901659014 -0.154647312119 -0.399337588172 -0.0715966950013 -0.166363146542 -0.114397446051 0.433503878165
was 0.0878532370614 0.0631146929654 -0.211745368997 0.243038409198 0.0459673224631 -0.557496051697 0.102471224573 -0.770709492498 -0.50796265233 -0.177894489 -0.230491226595 -0.221297506888 0.195479892746 0.367734555447 -0.031194286778 -0.234123671508 0.00784306262616 0.227772969452 0.015469405741 -0.223006112047 0.139799863416 -0.103368498384 -0.22516682701 0.413976865796 -0.167740205043 -0.738652238347 -0.27725287456 0.269581112515 -0.114399190101 0.282561833808 -0.239495326939 0.14119137303 0.363872749645 -0.374159134432 -0.4529699152 -0.351304157962 -0.103806600274 -0.129648894862 -0.109761166935 0.31428577048 -0.0968538441552 0.302926966064 -0.25091702002 -0.119361287731 -0.80761746755 0.0293275248704 -0.259388820667 0.474484730082 -0.236468657521 0.0725583483381 -0.117481445397 -0.70230086139 0.388166680864 -0.213691802516 -0.0839297338195 -0.312610012569 0.292178934472 0.351525092229 0.494076258325 0.407026934126 -0.0470295735584 0.428101149143 -0.810520537652 0.226124054574 -0.0692473336531 -0.319837948978 -0.565601912288 0.352659424902 -0.569793043661 -0.524921978018 -0.0428589957305 -0.0507591606103 -0.502096853646 -0.554697075856 0.170043494507 -0.0912395465985 0.0689508457157 0.533544578813 -0.413335151236 0.347175838807 -0.436570846153 -0.0629364893935 -0.0544195518997 0.0784846661634 -0.286918163846 -0.382075647057 -0.527167144897 -0.207566759721 0.0993981834715 0.126657900719 0.3579412112 0.931099665066 0.173150503322 0.308855379666 -0.0191235310266 -0.458975335818 0.170656383802 0.395458165123 0.74544089857 0.358995577175
earthquake -0.0924334927825 0.116296099172 -0.289492221912 0.205617794667 0.311840837354 0.325495875427 0.451806648469 0.056234309457 -0.384144977441 0.644866046885 -1.05037793483 0.564636908792 -0.0781626964089 -0.429142452589 0.347484851036 0.253444148046 0.328952645496 0.077840142205 -0.451162017663 0.376466501184 0.325179920644 -0.0590865462351 -0.206945764856 0.0018708584528 -0.262064452864 -0.396893044663 0.250763445416 0.0877122706992 -0.00207286393547 0.0922908302255 0.0781772397783 -0.745606282402 -0.0970412652167 0.325435610249 0.238321333672 -0.1940348619 0.253046032171 -0.521430304119 0.227129524135 -0.0216275267193 -0.335962553181 -0.386061461558 0.248832993389 0.0198304951384 0.301295282561 -0.413435063587 0.171821946338 -0.691641711046 -0.151085013915 -0.71724733394 0.147948612234 0.205460673838 -0.0166206993756 0.591976951396 0.305347883953 0.079774092052 0.425671324603 0.572272032731 0.241232786363 -0.208230405352 0.273542917793 -0.307436329552 -0.457601672071 0.00226751249762 0.204478572793 -0.228173618531 0.325969267394 0.695809922345 -0.635672814996 -0.361138917306 0.673091078913 0.557039340267 -0.498515210992 -0.0561631810114 -0.217786821658 0.527135128156 -0.0785124591411 0.435718283552 0.602964928865 0.0775639085204 -0.0117954057279 -0.222505456858 0.14814639885 0.458389382071 0.414275296107 -0.0328174582893 0.367381768006 -0.445512340763 -0.331266026227 -0.285514202799 0.261982032378 0.54494472892 0.507340600784 -0.495202396681 0.537178824995 0.495031042272 0.696936171232 -0.45018185909 0.1539419029 -0.291119913582
one 0.586067954613 -0.81277789969 0.299269759629 0.0561057005282 0.110658934586 0.593313359015 0.324174993286 -0.336935396154 0.0690236931671 -0.0263009274188 0.730591313363 -0.0254844923611 -0.606643387812 0.180796847449 0.321721749318 0.32476386097 -0.515537280885 -0.226543934864 -0.404646750667 -0.660549227062 -0.539801899239 -0.018019989294 -0.242504867591 0.466021742444 0.0818922746821 0.0475197559938 0.461393956501 0.490531623758 -0.0200342580629 0.736661509826 0.333121917285 0.0356875807912 0.459918004692 0.445084531807 -0.0885505043624 -0.133214336343 0.432738052716 -0.0944483691919 -0.0391884594196 0.00499341004948 -0.579091789289 0.604505069623 0.233122267045 -0.869852052131 -0.153692086797 0.0946545435535 0.327472090231 0.155305773018 0.652652875902 -0.119582726591 -0.422910017032 -0.268292415499 -0.298415434136 -0.334919383251 -0.352371388364 0.35145098697 -0.423909403648 0.11902465335 -0.201943198942 0.590231382998 0.524045653936 -0.202642747353 -0.282307627099 -0.212539368906 0.0319661419132 0.125475866752 -0.691327770361 -0.164926759899 -0.680391831786 0.0569233972528 0.10896961335 0.616989951843 0.370426285694 -0.64305087416 0.346802212658 -0.140881143591 -0.137045306738 0.436072140972 0.506679317303 0.649978760565 0.48632135887 -0.623062510216 -0.297310049459 -0.475118542939 0.640586253987 0.232506754054 0.360607066926 -0.188140542145 0.187201166082 0.225978634398 -0.0067745890962 -0.253386392804 0.65698508715 -0.490105793432 -0.268689164554 -0.238311235316 -0.249356755597 -0.477627867373 -0.144195334993 -0.0913287882058
los 0.35783801073 -0.000149316893708 -0.022910470415 0.0233651694142 -0.0950438029707 0.0944155363955 -0.0220347005227 0.378770275441 0.148293256601 -0.259317782553 -0.533744706152 -0.455559007303 -0.43868318551 0.31185897927 0.42002963888 -0.584045940547 -0.016706444639 -0.0320112562325 -0.0405993004313 0.014125460166 -0.358010949025 -0.00459952143521 0.26270246607 -0.665784101727 0.310126040974 0.230608647846 -0.0159312312286 -0.0224858140236 0.415856856482 0.231809003616 -0.469334327117 0.248498386377 -0.00293880937488 0.231910632775 -0.633462772548 0.35281711261 -0.628194238972 -0.497783770818 -0.369409117013 -0.554584768007 -0.519628204305 0.274497100473 -0.0138854095267 -0.0564084977432 0.26295857747 -0.215633733594 -0.684022371891 -0.177734520476 -0.364069564458 -0.211474962306 0.234414874167 -0.55461029669 -0.192134936288 0.513916607462 -0.0813190548684 -0.351307303393 -0.203915958264 0.0436516587251 -0.693855343679 0.25633150189 -0.685509025811 -0.32699165892 -0.334561146701 0.285820728226 0.631684000019 -0.800170543345 -0.449082269688 0.240854761978 -0.311092339146 0.215254315027 0.19645863998 -0.33995454154 0.0539382781629 0.0922143266325 0.168399394069 0.311664680499 -0.272007156867 -0.463336034329 0.392015754895 -0.410154700974 0.59146922498 0.065953970952 -0.638420588554 -0.108087695582 -0.0678849000169 0.114511741695 0.391060129146 -0.510441311928 -0.44159904462 -0.485245558974 -0.526332580519 0.755672361211 0.198875613572 -0.156674464622 0.628041403206 -0.115646140673 0.0284381880782 -0.529179684773 0.205417144013 -0.155894346527
angeles -0.631032957988 -0.230892643373 0.477549630199 -0.247498528924 0.164024742431 0.67195337151 -0.0872382332199 -0.14364895486 0.793234405894 -0.151893685448 -0.269835659256 -0.723559337162 0.579356218749 -0.0300747976745 -0.662634036685 -0.448170801689 0.464361910395 -0.403066747496 -0.011498994987 -0.631500252969 0.203218720891 0.525142020509 0.504372197772 -0.590841492438 0.0263661806228 0.434268655939 -0.0708579216826 -0.231326615229 0.455761787102 -0.530479081734 -0.16809793022 -0.904898140566 -0.0377201689428 -0.659551411362 -0.682170534794 -0.334867869837 0.410870353524 0.136785878292 0.0519721109508 -0.333061030799 -0.152332513689 -0.165593063347 0.509190026603 -0.582392906678 -0.0647731038157 0.270205925827 -0.132240590846 0.782483580114 -0.0654444511756 0.0498370657533 -0.561114870537 -0.27650039659 -0.2289036088 -0.141914236725 0.541547169367 0.160531899017 -0.494886750777 -0.507965031039 0.00938373047597 0.376138506983 -0.403393078104 0.309058178396 0.143992873299 0.279479083949 -0.106761174424 -0.220598935588 -0.190082934811 -0.253101819979 -0.0591543142612 -0.637578289755 -0.125903670052 -0.0876093030687 0.528448607948 0.451195337121 0.0860377105803 0.21866738269 0.58409323834 0.686101925885 0.480475260082 0.381394280291 0.665018861014 -0.303921876528 -0.505397471128 -0.506400258665 -0.0796760118834 -0.29185175803 -0.258312414871 0.458195531816 0.720114474452 0.0847432097882 -0.77118682462 0.592580340549 -0.301876575763 0.464171595302 -0.474210927314 -0.314840653969 -0.122209742512 0.0804792852335 0.326529679641 -0.360986849607
<smile> 0.259739027373 0.754238735091 0.321656865274 -0.00781908897967 0.0380044216546 0.300435763887 -0.495564855741 -0.106790545238 0.0869341938905 0.467924056913 0.713858219772 0.262861543575 0.301547104725 -0.542655740408 0.780117289325 -0.721689608095 -0.547176466379 -0.24433603442 -0.140088196867 0.046881453905 -0.270786564456 -0.170291051421 0.427199899259 -0.127253713964 0.065089703156 0.559188839547 0.0827666336709 -0.497976444214 0.0070307487602 -0.255743405305 -0.0988318699836 -0.202112516049 0.2110462234 -0.382320269973 0.738333339011 0.955216894406 0.357339849622 0.0167881911784 -0.510207257535 0.598636596407 0.240111468634 0.325254831614 -0.211995240709 0.00339781740464 -0.394366434181 0.163118729351 0.402359767271 -0.0812242625114 0.0441692637773 -0.0168988969419 0.0831234793521 -0.0876722099105 -0.158390321393 -0.0789638350418 0.131783647806 0.794340503035 0.84021178392 -0.278808357882 -0.116361538965 0.268762298187 0.13355185463 -0.0822926393674 0.253636774877 -0.53406796552 0.0573335141079 -0.274164939823 0.00157022372887 -0.0740847742969 -0.535144658526 -0.126657783581 -0.383818512643 0.665476883113 -0.219860871169 -0.874782070954 -0.219331154747 0.496183383713 -0.606956534504 -0.067935618319 -0.400774775837 -0.139247297054 0.121972143518 -0.138375956048 -0.429341952548 -0.176610273496 0.785910247038 0.0728018147759 0.17947741913 -0.450785205914 0.489368180277 0.439152090966 0.709427441382 0.639857192768 0.247748862246 -0.0237227288842 -0.336819273993 -0.340692037443 0.760462609114 -0.109529209786 -0.0734611863412 0.594526989236
m 0.577478826973 0.734441253254 -0.0528596605284 0.0896020992813 -0.777813787832 0.33376790571 -0.5643495224 -0.00471043405615 -0.0458684000187 -0.367847868353 0.444953940777 0.533360801193 -0.590087542718 -0.225734353198 0.366041235799 -0.35328270342 -0.0272609210735 -0.216286120883 -0.828147989094 0.043836537721 -0.44480015566 -0.935669818129 0.659646665545 0.523254227279 -0.416034073246 0.365655300211 0.0161791837619 0.244160589371 0.762031777429 0.0191698831508 -0.134165319881 -0.363784281157 0.379536619772 -0.233164714729 -0.665928859555 0.693129717642 -0.761652089078 0.13163277797 -0.0322311502402 -0.0561016784015 -0.0756648807706 0.256704230539 -0.502926189314 0.144498308036 0.192600892436 0.12143398494 -0.119156828327 0.124451359346 -0.510625124121 0.0356264066672 0.0990893543605 0.453708233866 0.231794461608 -0.158604584055 -0.318260326361 0.555278380792 0.410873723776 0.287749299853 0.274126793819 0.0622114952818 -0.536823735776 0.760971491942 0.196503904297 0.0941383222381 0.638818197506 -0.147827225642 -0.565677009506 0.318172598067 -0.326168237753 0.115930461469 -0.336833445813 -0.153107536593 -0.682809859277 -0.511537241818 0.157499804815 -0.0427362994204 -0.126195172196 -0.198785315032 -0.529854280543 -0.334869241048 -0.243006113494 -0.461288235157 0.187973985514 -0.278856233911 0.240670085803 0.265931665245 -0.121337690897 -0.106619753989 0.603488572388 0.419394067076 0.720656274883 -0.284214247576 0.0138631073941 0.313080201385 0.6740740466 0.26952597118 -0.807828095068 0.139670100529 0.292442464433 -0.38350321567
if 0.196091260302 0.104861968277 0.559848631112 0.202052049029 -0.505276478393 -0.645155202502 -0.498578736088 0.0186005725939 -0.557924886901 0.112280873969 -0.843797999012 -0.292140450454 -0.265398733877 0.695510940481 -0.290763573769 0.114891580405 0.184299910712 -0.0101291497023 0.275695123747 -0.310087360858 -0.525383445537 0.490746317865 0.297121042072 0.534073820071 -0.14389353624 -0.120808657256 0.0335423056851 -0.484800463434 -0.283330872248 -0.22233224976 -0.276649041015 -0.217340345092 -0.24495605833 0.0138634545369 -0.0368271036307 -0.180999442123 0.635217727412 0.301619700453 -0.656279306909 -0.605892950415 -0.417647862575 0.0551465428473 -0.255831853907 -0.467192590042 0.102158108042 0.318592843912 0.0476828232811 -0.415943637934 0.632970704268 0.157138302479 -0.22361045666 -0.390767488218 -0.470943484263 0.611395174101 -0.119492902974 -0.149242205308 -0.690497177974 0.425355167459 -0.0526714242412 -0.0207262290147 -0.353548619335 -0.535806942469 0.16108481781 0.65268234801 -0.272318713845 0.742189892813 0.0176184334788 -0.174081524097 -0.336237521216 0.257543151941 0.377788165961 -0.654395210558 -0.201510008467 -0.350724879452 0.0635979057099 0.1625233473 -0.174901067253 -0.185374790021 0.0207595229856 -0.194050752551 0.539542730759 0.676870347797 -0.697971572773 -0.167206697751 -0.328710430676 0.108543655499 0.0803201088994 0.0109472748642 -0.536190586309 0.529899753119 -0.556507157781 0.0518042402085 0.1586080738 -0.484527197123 0.196272623497 0.0579399625329 -0.3698818255 -0.718006877828 0.347853110869 0.178588181134
me 0.108510159949 0.285014470121 -0.120923734197 0.427115561346 0.777642456301 0.0358100958515 -0.503958641597 0.343510413779 -0.382775688762 0.58171508205 0.566760717831 0.479300226624 0.394845067127 0.348311253124 -0.339035849573 0.232644770416 0.234252994734 -0.0222393369942 -0.572715265767 0.155072096078 -0.550050506833 -0.478199372049 0.0180089039243 0.320559599114 0.184973588676 0.190166957436 0.25539495045 -0.318809794327 -0.483181074082 -0.904870870455 -0.474140894652 -0.51325616091 -0.355877596194 0.664108598164 -0.126897060052 0.674203621118 0.0177139664826 0.0396130155046 0.163400635482 0.391424700577 -0.158032179817 0.0382028379806 0.104202109125 -0.592097591273 0.0536780034526 -0.527501491432 -0.0956735082566 0.0465056494136 0.205669865512 0.180809448858 0.248196943108 -0.645133208053 0.512042149368 0.0679240124266 0.545874439399 -1.02151164957 0.0657223197142 0.740554270511 0.303789476517 -0.50326075932 0.315203634171 0.134290212611 -0.519924721031 -0.150395456661 -0.496441775451 -0.413225452523 0.211402514902 -0.783637974802 0.176680575663 0.662202821072 -0.0426157887864 0.26618633133 0.350936451637 -0.181971081957 -0.183368628592 -0.389961900851 -0.288809132975 -0.0848215559263 -0.608043687304 -0.243526760397 -0.727966167602 0.34491021617 -0.376204632237 -0.16224126071 0.634704237063 -0.428616124003 -0.265711023144 0.521358962364 -0.17877578695 0.517996023354 -0.092984659076 -0.605819552433 -0.0268965237801 0.326670357003 0.353957256292 0.11842525775 -0.187935169205 0.468805725345 -0.662222691156 -0.279615549628
this 0.624490356227 -0.159669933801 0.228614110304 0.625521781831 0.0151901512007 -0.467544684415 -0.592740358359 -0.179103679822 -0.571127266526 0.809260974726 -0.338098192495 -0.0752717013431 0.0164134786801 -0.354315823476 -0.31092500356 0.528237521905 0.850830061736 -0.230122581737 0.0185069986226 -0.0764417713789 -0.160675990124 -0.218784966379 0.137987796086 0.236525951965 -0.0435648719167 -0.540126257176 -0.33329585996 -0.143363782185 0.111296963311 0.0930547641527 0.814836736477 -0.0348539730101 -0.48624304626 0.428862546737 -0.0823316862821 0.436336434203 -0.257206769041 -0.657149696608 0.25572356364 -0.0333574025512 0.715010447744 -0.0925843670075 0.301635869729 0.296760138143 -0.218285564751 0.310420857626 -0.431670437213 -0.170289867784 0.413159628475 -0.161368928537 -0.00760114279349 -0.217901371204 -0.017828699658 0.164868261605 0.516715211286 0.0152281622299 -0.269821835489 0.0246447119097 -0.539210345721 -0.427969488935 0.371676004289 0.716371707832 -0.367518691172 -0.729634700384 -0.680146704167 0.0205593379124 0.522600439311 0.930076736485 0.0349125599562 0.488108408029 0.826385917431 -0.159097167694 0.912586279332 0.215169026056 0.0386032847621 0.379764686953 0.0272290515024 0.512861659939 -0.0361604984079 -0.487386987276 0.751311633246 0.0418157726324 0.521492897498 -0.0381394027379 -0.825214329866 -0.498354506779 0.208731769194 -0.240401181251 0.203701932014 0.716121561186 0.0971876638952 0.16199435595 -0.639742162066 -0.397542294875 -0.137593695925 -0.0696627489144 0.145855721147 -0.233512802906 -0.304985576536 -0.0367555219979
get -0.0779394332491 -0.487908017638 0.316270236443 -0.445560344152 0.0582132183228 -0.216838439328 0.723177704708 -0.414355750407 0.346871022266 -0.0131429335437 -0.285666218933 -0.6278768312 -0.0386548691547 0.636133151433 -0.0142457147201 -0.27963692209 0.448736925166 0.254263012326 -0.0619081024758 -0.499494804969 -0.61819764246 0.124351953939 0.567545247307 0.577899735681 0.207739355643 -0.711013676058 0.135146351752 0.214699779467 -0.228501987349 -0.251366515852 -0.74470508804 0.302515627853 0.0229702503486 -0.151035444694 -0.378939197667 -0.281187312707 0.112090274634 -0.585426976457 0.0886338856485 -0.591440261569 -0.25488303763 -0.173207178544 0.176875650252 -0.188098211955 -0.125822677305 -0.228691714297 -0.272698757461 -0.361991459096 -0.0425445509074 0.151472245264 0.119374398343 0.983958768736 0.261411497237 0.674586478586 -0.143050245867 -0.665387827119 0.212679967311 -0.156185099645 -0.629385174362 0.246165550861 -0.254082151177 0.0464068970827 0.658075994635 0.13535588877 -0.188924919091 0.385038694003 0.426747522296 -0.0500869779833 -0.0299009907509 -0.203872602499 0.463215248433 -0.314703994677 0.188183470724 0.433957216307 -0.264336193816 0.138512376972 -0.0227211162807 -0.830122929165 0.0881895787574 -0.391591610519 0.693308717788 0.255026756327 -0.273792254066 0.38353377983 -0.536660051681 -0.0386429673866 0.495693215143 0.0622744197541 -0.502969338499 0.0592265012265 -1.01739374063 0.0465149029791 0.0334172369949 0.296650733694 0.123999317337 -0.424920518952 -0.28724564162 -0.290296552243 0.00889643120632 0.591165584658
have 0.341082649587 0.153822852665 -0.0560645269551 -0.29009041349 -0.119801785709 0.38803451242 -0.314795327996 -0.0917247099029 0.646014220085 -0.048510021534 0.32378212767 0.0753323741874 -0.394324834803 -0.11575186711 0.540345377348 0.153160701824 -0.0394998111794 0.096514989781 0.708908534738 -0.251744238701 0.0491611134743 -0.326957550514 -0.278174427727 0.136340917362 -0.0301173490304 -0.189722792593 -0.492724218376 0.431609185533 -0.691312825803 0.696640328089 -0.256830827386 0.030896676684 0.0722416952462 -0.017447489953 -0.716638070257 0.544930647659 0.861856154567 0.768570793596 -0.196892476636 0.18646987298 -0.0109562528038 -0.690613549897 -0.473613120565 -0.0769808921027 0.0777629141755 0.335763647259 0.188881803692 0.0242443284133 0.0109868875209 -0.988866974084 -0.66323649648 0.643167886889 0.335002436185 0.477268083716 0.706950277611 -0.251898116099 0.192896136111 -0.201623096214 -0.357717799042 0.673548963527 -0.426438467977 0.0434006604321 -0.600565446832 0.0653021285059 0.0961769192978 0.310621851667 0.0387640524766 0.198883498832 0.140209148438 -0.153570078008 0.456647385679 -0.19118267095 0.124375914012 -0.0546838094812 -0.679618528054 0.137557034325 0.00397163223082 0.0980356806848 -0.601647463255 0.0822189815955 0.240158190749 -0.794405022172 0.0433528540465 0.379027969816 -0.737747619597 -0.246673796682 0.61744952397 0.225509487114 0.200294839162 0.513785471171 0.305242716376 0.0435308445303 0.256381967896 -0.226786202301 0.00834228715092 -0.15077108672 0.0929133915028 0.916969873831 -0.923312522989 -0.0591910172491
are -0.41129161508 0.0427728172363 0.284242655236 0.263460218195 -0.756374743069 0.0984703721651 -0.172459924427 0.113301249612 -0.0244140216629 0.0777605399908 0.238855895813 -0.211166163597 0.632436308143 -0.139434069786 0.0873551880985 0.393287069538 -0.579623520846 0.364827321985 -0.48063018693 0.205334587462 0.618435630198 -0.403468093264 -0.597555094984 0.235514768623 0.0451255133443 0.232651224117 -0.0865439849304 -0.144638449634 0.0895949195692 -0.0841822658133 0.435895493126 0.0558858224047 -0.396620602996 -0.62604229753 -0.141377109712 -0.615683236514 0.53228848698 -0.300153166761 -0.132402915364 0.175256152249 0.10457756124 0.573017290591 0.111883282802 -0.42799933928 0.0714071677831 -0.0909017053033 0.390712016579 -0.973789229399 0.153865306521 -0.158990809753 0.357935769774 -0.0354006215504 0.375955142381 -0.363925310829 0.230428252282 -0.285754501408 0.294019855916 0.894058519882 -0.825087053977 0.750269108766 -0.376953997774 -0.305586843269 0.17062583259 -0.0268225680516 -0.0323665008255 0.112563889665 -0.914810589194 -0.0689361469603 -0.300543332158 -0.0241629536763 -0.13252221668 -0.265259795426 0.573224707025 -0.455168696859 0.624884544358 -0.241597605604 -0.467560965624 0.0376762980621 0.376439599633 0.643422280285 -0.0893786186531 -0.184566177591 0.493788996415 -0.143397796167 0.293700748055 0.253745153946 0.319168401778 0.373318482823 0.806605763981 0.775619737497 0.366297758435 0.537829612562 -0.056322960212 -0.518846064135 0.260812223514 0.743208300183 0.841039360611 -0.582971009353 0.0681024581846 -0.269622858168
day 0.00747476459656 -0.359707451932 -0.274966729525 0.286853559364 0.503785093657 -0.319419970544 -0.637044465237 0.291070558479 0.4677077005 0.530965603965 0.38755193704 0.751328564014 -0.167097770015 -0.701877545189 0.119428729228 -0.0700759466335 -0.25833726942 -0.787066823004 0.892333624873 0.381199193781 -0.367831559216 0.196608704402 -0.384758721807 -0.375473662666 -0.0447006755486 0.195534395344 -0.726858788549 0.464384777742 0.406339142541 0.274836856008 -0.436825851324 -0.0378722496523 -0.380552083528 0.616699012537 -0.128754408233 0.219286316135 0.105832195327 -0.40388042904 -0.102129057331 0.231463150038 0.0654606315522 -0.249667414202 -0.0302071389661 0.731649941614 0.20850779308 -0.41551647116 -0.0758979431692 -0.878098476272 0.589073489184 0.141227083143 -0.380641417508 -0.166701455025 -0.0540871892433 0.057625590461 0.0219836230771 0.148638995221 0.12319752781 0.855795688882 -0.875529001849 -0.269660995821 0.734146830149 0.753178600607 0.685633773494 0.104568594453 0.339743321386 0.0765250486981 -0.482839638428 -0.135386046041 0.0409003094455 0.152551849899 -0.769811176065 -0.311219914844 0.138838082842 -0.533884651152 -0.194891335995 0.821804397378 -0.0255875580736 0.718231776055 -0.518053977007 0.737014720053 0.0463819780597 -0.162220672361 -0.179601464611 0.591258900994 0.0217317768573 -0.245477845654 -0.30562140339 -0.0816667990363 -0.0573005795469 -0.290301635191 0.424726300961 0.0922742473725 0.56897793699 0.197830731876 -0.144980514882 0.150534525493 0.110306666428 0.0843197687495 0.187649986722 0.387019462695
from -0.269569401786 -0.136244810648 -0.170054990428 -0.138181302782 0.113078055686 0.222327069032 -0.651159943049 0.334557594007 -0.605907829195 -0.162610937355 0.124184831797 -0.789244765039 -0.142577181905 0.0037684015969 -0.0742636167405 0.216018963976 -0.207918768327 0.378512818153 0.186118516458 -0.141382476036 -0.18336434654 -0.210213786212 -0.0355475166287 0.660366715887 -0.272026024764 0.639160970751 -0.2511833923 0.619446078951 0.765675206148 -0.17146280856 -0.288767969972 0.0170481739426 -0.402178561496 -0.579045831648 0.854475481288 -0.580801434124 0.374237436637 -0.454906328288 0.185124777782 -0.279892473892 -0.215001261274 -0.486455990404 -0.155541883017 0.69973892979 -0.20300803509 -0.392965994706 0.729666387832 0.533403266101 0.413406878632 0.293116982061 0.499215612522 0.198796767335 -0.0136034158254 -0.429507964191 -0.0578050825936 0.210151750762 -0.157200196582 -0.249352675755 0.276354568037 0.093653461486 -0.0675229552455 -0.465116809027 -0.773410465052 0.0887553691056 0.291519634253 -0.0386474729501 0.711239157617 0.210631795679 -0.0733921664242 -0.313932402564 0.812706499282 0.269566431133 0.359405091439 0.778058984646 0.422906219521 0.462901172203 -0.322016355347 -0.0761843683067 0.284616264378 -0.00551804067067 -0.307905136707 0.112029296639 -0.153062153628 -0.487990284879 0.367357847837 0.010586615815 -0.20363980359 -0.196539276953 -0.111125656169 0.46362581729 0.0469134944565 0.430161994577 0.123935244118 0.635653973588 0.0030591229093 -0.770626056266 0.124949762278 0.287568299961 -0.871515681858 0.130439754547
can 0.367254438586 -0.343972996146 0.238854613439 0.148615964327 0.259897220383 0.165897362224 0.478933228917 0.26349015282 -0.0591958932664 0.026282937603 -0.185343949669 0.582769641865 0.168016401763 -0.605907124505 0.0509142206893 -0.336083531151 0.14335152953 -0.159718849685 -0.0638952785181 0.30053681672 -0.259354672054 0.271356620633 0.0771431408123 0.119840692656 0.212453142804 -0.51878215183 0.356872610932 0.556228048596 0.0407210648594 0.00393435174844 0.0758731556727 -0.602121818152 -0.323540484938 -0.212205014393 -0.271590303307 0.255945340879 0.487946263622 0.427464592028 -0.285288297127 0.31034629505 0.270091088492 -0.159130872241 0.0751559333525 -0.347484376645 0.118591302192 0.19259020499 -0.367641229695 0.115893610565 0.0405499837053 0.0516874311833 -0.408160981582 0.320290859404 -0.0550036345444 -0.217644766151 0.412585106727 -0.219052572264 -0.268383429766 0.480665342056 0.0629638110406 -0.186522428526 -0.0900801683303 -0.507618563107 -0.130642308329 -0.174284093244 0.414228886556 0.178111140588 -0.384232620895 0.624787653868 0.0643625981442 -0.0752141136247 0.165304204029 0.21083249831 0.57174862521 0.625171981543 0.586633261013 -0.343654589282 0.216035475112 0.292506017943 0.671828744973 0.301938620756 -0.437292002281 -0.283725899281 0.662281985906 -0.274588676657 -0.268498850767 -0.300827415088 0.920482296033 -0.0931906672171 -0.825004831335 -0.266365580211 0.291604666252 -0.667684102688 0.0780322220036 0.600429303786 -0.066602217429 -0.185084578566 0.169860830198 -0.59393671124 -0.0463653138765 -0.16058641208
election 0.309547737328 0.0240496471015 -0.124789677407 0.0110783299964 -0.221017457173 0.213282470267 -0.584594816897 -0.387088189605 0.285104098299 0.360761487199 0.317377578513 0.724132566034 -0.173465731159 -0.56184711385 -0.598065865247 -0.772286713844 -0.275943990929 -0.269190034115 -0.459049491945 -0.0723830750665 0.908915082541 -0.128634844466 -0.112846719691 0.220895408594 0.208094278672 0.0928762988616 0.0494033426336 0.560148216216 0.118292266452 -0.582870762846 0.00237292565912 0.635024325352 0.700578433981 -0.699577809208 0.262540787784 -0.447438749715 -0.0210166653387 0.0573386501248 0.556734768317 0.796424085961 -0.154693693304 0.233507096705 -0.196753398418 -0.0916403111498 -0.193136209451 0.586155288895 -0.0213563991954 -0.376541158274 0.302845773071 -0.0176918965545 0.295776569624 -0.326965775164 -0.152962482202 0.774802726652 0.386420645362 0.223638812697 0.459581979446 0.192873510956 0.0992739753713 -0.378949543593 0.0997149375302 -0.537560689329 0.0639467970852 -0.28615494338 -0.292028630574 0.0184896338458 -0.0669451030513 0.43850594156 0.596768659265 0.49812534477 -0.0996524031492 0.637962642051 -0.258037498958 -0.737498160713 0.600465113575 -0.846518176481 0.473013197517 0.277850463354 0.441838455817 0.270518576174 -0.397391401394 -0.612033762106 0.46540124004 0.00262822915205 0.820579589073 0.218165626857 -0.557478350017 -0.454533590389 -0.455478035184 0.849242494952 0.096159824225 -0.00032394005123 -0.050731889353 -0.637951651595 0.276849020786 0.181656675351 0.495977422601 0.320834902401 0.345461662419 -0.295779645077
want 0.405183773452 0.852787549201 -0.26151297027 0.384196917743 0.565070201583 0.406130050447 -0.195145672903 0.854121050559 0.499310907556 -0.0237383121844 -0.608097818281 0.582695529948 -0.1206180141 -0.0392516329907 -0.442367545885 0.381949656007 -0.0849365219105 0.160693865909 0.354039996447 0.424181895009 0.137248570585 -0.677423081941 -0.0926484216121 -0.680783553905 0.378359005894 -0.2124756302 0.512043548935 0.133513176729 -0.385783794664 -0.257256490959 -0.299592914981 -0.463392990275 0.623903415619 -0.20033707436 -0.273053682674 0.852227646635 0.0221093189162 -0.0632183203789 0.774472082367 0.620581862866 0.291710976747 -0.225352697009 -0.315242353747 0.138774198232 -0.106820334396 -0.0723164348721 0.437005793728 0.0704068877204 -0.774818161108 0.126400116348 -0.302358226085 0.293934612401 -0.69002663334 0.714073841094 -0.332320586659 -0.136087150563 0.507028525605 0.462279782765 -0.267718262037 0.211500178917 -0.0120091877294 0.557772710682 0.072264452499 0.184159236925 -0.167996626877 -0.707051042298 -0.0945642176464 -0.0765174259458 -0.415579181608 0.16273948352 0.736714879875 0.48842067434 0.313331758711 0.478242252076 -0.850043777113 -0.454965247963 -0.813815721783 -0.638359318032 0.530262458083 0.908261918515 0.407435409092 -0.434579522635 0.336606086115 -0.334503586879 0.301952560872 -0.148763727395 -0.0636031462213 0.4994762253 0.530649821839 -0.0749601966173 -0.200334019407 -0.412528633701 -0.582755987079 -0.752218060281 -0.00956789278386 -0.286521380633 0.211252188988 -0.0888670895738 -0.15711887538 -0.00271066403424
out -0.501016386163 -0.275097282719 0.162057412606 0.197852838922 0.0367001618033 0.564698829253 -0.0517709794946 0.126132313247 -0.120168225154 0.209843825247 0.0433286034693 0.174648403234 -0.764416529 0.217166119335 0.272167165052 -0.612507052841 -0.538690402683 0.0686269626267 -0.895521356341 -0.51299347381 -0.179801449991 0.637538615321 -0.501557221316 0.206461430143 -0.331750041874 0.629328167931 0.71836653595 -0.368595025366 0.317230890282 -0.375736609364 -0.0417799553566 -0.0203066910331 -0.593331127493 0.114238333746 0.169486911828 -0.165625774016 -0.0212693165933 -0.0623218133593 0.131790253161 -0.0900759288458 0.357396246256 -0.515104612992 -0.228113880779 -0.448254280728 -0.0606286761344 0.378761954672 0.394669931523 -0.40284286961 0.225744427927 -0.475376489655 -0.646350926038 0.14420981768 0.4468954269 -0.142491372099 0.441731541787 0.231772380702 0.65347117309 -0.482119550482 -0.265095116607 0.113486269307 -0.0485364719385 0.594887516117 -0.122161234173 0.726296473193 0.290140744693 -0.171573785112 -0.605496166576 0.527832293679 -0.471496721863 0.338630882448 0.409199674954 -0.140994442206 0.560740671116 -0.0879171496423 -0.7220433893 -0.0358857717428 -0.270377284733 -0.0942330674355 0.254750412102 0.120417108896 -0.29969265734 -0.265378759012 -0.241646891246 -0.574834640496 -0.159623156526 -0.705105335425 -0.0496779103068 0.143949392358 -0.391723598182 -0.170314182722 0.622137814392 0.477667371012 0.250405682566 0.426568112757 -0.278317979844 -0.499225478953 -0.255129484144 0.506921067539 -0.171340438509 0.741258383293
what -0.138518746771 0.571507660092 -0.646392331228 0.0591005962144 0.0989836901648 -0.647489037866 -0.0401504494402 0.407006586004 -0.405210625976 0.378803335148 0.0666059366683 -0.134150205448 -0.191008969857 -0.753836328123 -0.722210034675 0.0285052523623 0.0694150853189 -0.129678091817 -0.61749973939 0.220402141865 0.195935071032 -0.59018914812 0.720524203375 -0.0169035413523 0.204412504081 0.193067861819 -0.123862957919 0.0274572013259 0.00444739310332 -0.140313684039 0.0594821674809 -0.267709379708 -0.544120513786 0.075659592559 -0.179449596142 0.0618523325691 -0.162926139561 -0.262641987614 -0.716484699671 -0.0750594999733 -0.943885676379 0.220274102431 -0.0482806109623 -0.36126574393 0.511398277767 0.314851872832 -0.752865106849 -0.217809423113 -0.0566198697824 0.321402327388 0.162564762996 0.00714760749244 -0.433876940892 0.0833264698402 -0.659701520804 0.69976728026 0.428567299618 -0.655161974133 -0.823682549657 0.797707708579 0.429628058289 -0.11305575944 0.104667655964 0.374007125053 -0.156207381427 0.818175193248 -0.31340020913 -0.0150219288486 0.496972147087 -0.857171899132 -0.518047109531 0.243632260585 -0.049974098941 -0.0652910094056 0.0680995954262 0.552681214675 -0.458901771511 -0.124587758571 0.269027475894 -0.10009090195 0.162653912458 0.202508400866 -0.0325295356446 -0.31594924522 0.518296885246 0.519204781276 0.280847486069 0.13996340439 -0.319055603604 0.177173095861 -0.280197820513 -0.174888392897 0.0136304772397 0.563379942787 -0.117487610842 0.704524379969 -0.0422182277976 -0.123677092092 0.295451977274 0.416814892464
your -0.206636499734 -0.739210695825 0.395812341429 -0.110097809348 0.234994059921 0.0431312562125 0.596045498656 0.552695911152 -0.21222001016 0.224872326737 -0.252614661733 -0.505954819991 0.347063068918 0.203733093377 -0.10150029163 -0.7606656263 0.09549064224 -0.304662917297 0.0620610697652 0.486990368554 -0.320089865438 -0.0377372970697 0.00222314589719 0.051528578727 0.220310838157 -0.312400754991 -0.365958672622 0.515924947859 0.0354608615777 -0.0783919557658 0.611845090041 0.527807622866 -0.319634364039 -0.155852805779 -0.0659234900717 -0.266815516566 0.0361437785258 -0.262083155542 0.0815744550155 -0.678453870004 0.229248589537 -0.31625221085 0.434458609294 0.446911659647 -0.190969319151 -0.165031469348 -0.637113359031 0.149684753726 0.317572951143 -0.0928420447656 -0.389553498835 -0.113074109302 0.493749534412 -0.258736608177 -0.184590051093 0.351621916569 0.199802502113 -0.380447346295 0.735882216641 0.160978776402 0.0656868499567 0.112773886673 -0.565908058757 0.248955677001 0.156066255618 -0.672751531988 -0.148119319686 0.571692000661 -0.0352408997486 0.299721417522 -0.00744366940522 0.207734714534 -0.242166282588 0.243406879468 -0.149450107099 -0.0805644775361 0.0318823310114 -0.713412382798 0.48442094843 -0.187573102571 -0.173852527483 0.524180996401 -0.0270008295685 0.367109640366 -0.363238130531 0.0839408120337 0.311165639089 0.319705918596 -0.015448600384 0.457938913194 -0.0109293508542 -0.311870015438 -0.201537419084 -0.356475344177 -0.117906850292 -0.3315781455 -0.128555212694 0.0218534215564 -0.424393726778 -0.0833076371127
about 0.0849112032091 -0.192429285898 0.00476352134701 -0.0908699494977 -0.258564055987 -0.212963713076 0.185450703633 0.599979548405 0.199975593932 0.200419109287 0.569054970382 0.0421856004046 -0.0191779568478 0.785692143971 -0.413834991926 -0.152092155369 -0.29171863613 0.369860035334 -0.199361379956 -0.569761002825 0.260523957632 0.235512204181 -0.325803308887 0.537768778817 0.416223095503 0.603341347008 0.829817084494 0.0217142834555 0.612292275927 0.328653698208 -0.597385055974 0.249484712291 -0.283362076809 -0.13560215454 -0.0124076247564 -0.0191166763105 -0.402604243059 -0.612634866819 -0.143292094776 0.412024277906 -0.174962989403 0.705557589634 0.637768775697 -0.223094147155 -0.275647243306 -0.307507148895 0.335698569609 -0.0146821109663 -0.129834384734 -0.0449105986493 0.634113092952 0.588019587398 0.00865576983469 0.729002157387 -0.508024163057 0.547936777493 0.0403416937651 0.0193477388314 -0.39829823919 0.101562473119 0.609942057022 -0.425742640542 -0.380239902415 -0.19497552664 -0.0568205138961 0.437849973729 0.137798540278 0.632941590732 0.442684812325 -0.626723272054 -0.574499171195 -0.835132938694 -0.0903029901199 0.132727664812 -0.123363389828 -0.219494744636 -0.518673275381 -0.210169592961 0.0318656534123 -0.274340287526 0.457267328984 -0.10315171393 -0.250855686378 -0.0291192237419 -0.34010903836 -0.0697075523247 0.261281360723 -0.144933384226 -0.527264836285 -0.215618387602 -0.704497801713 -0.0713520211508 -0.671467006753 0.487924771671 -0.749600582066 -0.486057259581 -0.453103769452 0.127448457799 -0.371232693369 0.233929971526
& -0.610498688615 0.261780809404 -0.131235880985 -0.150708865641 -0.674840861158 -0.112762021106 -0.40337802192 -0.109920816559 -0.116480848463 -0.44167833832 0.0442600706163 -0.217461295846 -0.516579957382 0.347619568403 -0.118591398066 0.0907108564895 0.552799074462 -0.287112516559 0.251254454242 0.137770426956 -0.0181630727493 -0.175926531385 0.522677312379 0.541484971578 0.29364822731 0.155263907293 0.274110951458 0.43556543443 -0.20450505104 0.722309938639 0.257404019143 -0.0545443284003 -0.179385316093 0.253699512188 0.283484723279 -0.0798393134976 0.560479018698 -0.124663585334 0.020804018049 -0.252315583662 -0.763734586551 -0.367324354325 0.441973436628 0.198162027104 -0.27388185364 -0.13274577175 0.00822719791939 0.213602639894 -0.076110396937 0.346810671022 0.0123751404528 0.241183496365 0.349537262735 0.277920530914 0.192363651546 0.269021447973 -0.0323732137197 -0.758902405686 -0.161774808515 0.429223701342 -0.686762258475 0.200658164255 -0.614243611113 -0.521750576959 -0.179565382846 -0.238414198511 0.126765824516 0.464053231104 -0.501005108542 0.0238613579681 -0.467889079603 -0.194578994184 -0.192154594871 -0.578537418007 0.0784347308211 -0.833485660648 -0.414831951404 0.0338843721146 0.26416609706 0.535492775399 0.36541091497 0.0663157063999 -0.165553925517 -0.0706501392242 -0.533288837175 -0.624842047355 0.185616951149 -0.718275810373 -0.635611797528 -0.422878709134 0.0394865428738 -0.404769663113 0.0635989412692 0.125432106377 -0.476058464371 0.230218620032 0.340505722385 0.547653448511 -0.734850387015 0.349930712846
now -0.357996168753 -0.0645852725624 -0.179557552329 -0.00316000426891 0.634301588985 0.245768314806 -0.736206950738 0.0450222965848 -0.0865825548477 -0.499263839636 -0.101913031853 -0.582938166542 -0.190894587741 0.075747487181 -0.702068841754 0.266477365012 0.0347240202017 -0.210397597187 -0.10561605641 0.0926832629343 -0.0148118827119 0.309515261119 -0.0602151419068 0.0725535781667 0.0314513669013 0.525773168591 -0.000318485177472 0.0707846888001 -0.0110472764293 -0.683935436314 -0.431452996635 0.192119773592 0.0873902187873 -0.838724023035 0.163340405913 0.199461077411 -0.0574793520238 -0.234490003585 0.112296473231 0.281285468468 -0.107386875908 0.068258826071 0.238754867814 0.301472220991 0.508949446943 -0.366251484593 -0.153333175495 0.414022182626 0.406264313345 -0.0935415912258 0.486770797679 0.49652537313 -0.163762349316 -0.621452741164 -0.588258640861 0.407733465797 -0.127279361264 0.286187964675 0.799558716878 -0.211315703387 -0.0987075802687 -0.187137495208 -0.0212460035614 -0.231906372381 -0.356882094864 -0.285792207908 -0.143724753549 -0.289794778459 -0.202226982042 0.331335545904 -0.269829806208 0.228410276401 -0.575769945024 0.417376866291 -0.0364427830145 0.800905344247 -0.467561833913 0.90368738665 0.642435627596 -0.285536840995 -0.596041086503 0.206484194826 0.140767220666 0.430344278567 -0.160866709204 0.00454612028338 -0.0145506354845 0.690387998984 -0.216420708479 0.560446793941 -0.331711164276 -0.585039677252 -0.262739173227 0.248015822021 -0.38168197288 -0.76278588876 0.289322506856 -0.299052861286 -0.051731924659 -0.091532415109
an 0.418339311878 -0.354131285616 0.263074853408 -0.540231083923 0.143976219434 0.0591509546996 -0.240138157801 -0.112832656017 -0.512841280958 -0.193641700399 0.513685776742 0.0559401871852 -0.329805261954 -0.186949044467 -0.287677841572 0.312816392314 0.456659092343 0.653248313695 0.212888735498 -0.175006975837 -0.301447759906 -0.338703261638 -0.718494529111 0.28446661915 -0.800225989975 -0.174990161111 0.466459945542 0.266806127964 -0.0977248749495 -0.269402769019 0.391923965615 0.210318654909 -0.747016916242 0.467898068972 0.863136906258 -0.187881672523 0.185778167361 -0.133464977183 0.281888814156 0.460634611932 0.298888136881 -0.0426205510877 -0.0274127142051 -0.135190302164 -0.0109043664875 -0.297133207874 0.00682117803804 -0.549251412803 0.143392484378 -0.801034395088 0.554553544993 -0.390686725723 0.0462928221026 -0.429248427199 0.685898318987 0.73548359135 -0.157767826726 0.214703702256 -0.00814194541054 -0.496470674666 0.256210380655 0.656989180949 0.0628926465584 0.596191184079 0.51681841259 0.307367144334 -0.162968357035 -0.222775762812 -0.439364995827 0.609244504085 0.136178841952 -0.351717194034 0.44665481217 -0.252263930361 0.424377406648 -0.47093396432 0.546462943575 0.0528377158448 0.591074077757 0.38358216253 -0.119216002838 0.442951418428 0.291756735307 -0.391178448383 -0.802060932196 -0.0848966455212 0.37701875553 -0.221460407263 -0.0727920891331 0.0824867986249 0.424523422253 0.661908452603 -0.245699998199 -0.918026647776 -0.0156528260054 0.231458655941 -0.126968118474 -0.415295965004 0.0463335071009 0.245030329757
all 0.333137563597 -0.684431669497 -0.236416969278 -0.0526232580242 -0.0761675126423 -0.261675437403 -0.205773161648 -0.0829256923731 -0.545938586593 0.579508086913 0.504854180828 0.134048121109 -0.731294130137 0.415388869071 -0.135426071579 -0.113101703945 -0.550199813469 -0.438683233576 0.0123953102109 0.350959400549 -0.22519790815 0.414361190667 -0.661413598833 0.430391897982 0.209514638467 -0.27170373159 -0.469416381238 0.645640578955 0.630736076972 0.300092634438 -0.196276758338 -0.526786990997 0.391044096654 -0.100694607852 0.534662310051 0.343992267249 -0.595309140245 -0.514686255759 -0.40298453732 -0.208743604406 -0.078263225858 -0.563774898492 -0.64959457703 0.434067873633 0.674120176221 -0.135979036526 -0.509511820978 0.263289639983 -0.0866526494362 0.251886484409 -0.501761847696 0.0530368454836 -0.119481354866 -0.0633496185639 0.522422750959 0.213909849492 0.0505953037693 0.1452407283 -0.775581206932 -0.156448708704 -0.0212655946647 0.45323257178 -0.349693938106 -0.3021648641 0.502310552971 -0.374975775834 0.235600084927 0.0135529647597 -0.102936382664 0.388103388887 0.272620842528 -0.461240608109 -0.570401993288 -0.527140547689 0.0872194074767 0.134730215993 -0.28357958944 0.563937258689 -0.253803718879 -0.56941472937 0.433410653939 -0.00743630492001 -0.013036156611 0.200922259739 0.161797027305 -0.102607343722 -0.0457599063165 0.273112930422 0.0450305965976 0.155739841657 -0.101028320808 -0.0601989440058 0.355390016431 -0.0148927766826 -0.787052946877 0.0829474343596 0.0398517346368 -0.0902989192214 0.0157513630333 0.0940580371428
@dd<number>s -0.50620742696 0.344508236088 0.0101285690851 -0.371270537371 0.04561223125 0.263576805019 0.153884158005 0.187820113105 -0.454392362591 0.335066182783 -0.438986126305 0.353912603551 -0.675868656523 0.419283538393 -0.364874659576 -0.516121956439 -0.360848007596 0.191023412224 0.361144786424 -0.799137369218 -0.111508495554 -0.686809696015 -0.0273573334818 0.12804711718 -0.23523110855 -0.124297517405 -0.0795840020237 -0.479146369653 0.883005262739 0.565258500362 -0.00114346040893 0.0161033180654 -0.0435051813904 0.176511103542 -0.04529935655 0.126656813709 0.050605847139 0.186073573638 0.210878027461 0.330874797682 0.082137359117 0.0995097308218 -0.578446639092 -0.0318081637694 -0.737248005992 -0.547922606938 0.0794874508035 -0.0475419680559 0.48153424957 -0.130355555955 -0.141655647585 -0.592101459248 0.381334722471 -0.663883839147 -0.535205141394 -0.0234199990452 -0.664827605874 0.728786260441 0.0987474120721 -0.814814836332 -0.267221119131 0.221769368595 -0.120735125122 0.555576396398 -0.16863068677 -0.784413563711 -0.259069883952 0.6945316829 0.171910973116 0.144642641044 -0.077142822556 -0.278633602896 0.0973685383755 -0.723734538779 0.271667674076 0.771346282556 0.686884284924 -0.15463515781 -0.178929547754 0.281838009839 0.407008907257 -0.276205923631 -0.213252411066 -0.205354917517 -0.0733921813802 0.0621528707659 -0.0992140853 0.510995625997 0.287883774431 0.724078548262 -0.103841501286 -0.622679262733 0.557063797528 -0.613961195348 -0.750696735844 0.248752263038 0.418219336196 -0.169462845953 0.0646148116083 -0.220004948502
that -0.40825456961 0.576620443647 -0.0593757779561 -0.475209847158 0.354234994959 0.478444238423 0.82920250609 -0.47429618383 0.578973191742 0.140387092727 -0.152288797362 0.638836838343 -0.038940273517 0.0535669507248 -0.00826554091098 -0.412043455733 -0.0608428695599 0.192012701099 0.102086180361 -0.157181472885 -0.02378502508 0.552685913642 0.0373990315029 0.747672508352 -0.50400364279 0.00780427402025 -0.26895421826 0.447195647185 0.410585693707 -0.595553346001 0.152481761116 -0.472302832386 -0.534584590372 0.384532805501 -0.183252203292 0.687827458842 -0.0180751016456 -0.157973502261 -0.274072603359 0.571621231011 -0.0524286088506 -0.392086188227 -0.267831813049 0.382627960098 -0.648215904839 -0.0152736477076 -0.0232794127168 0.687192272497 -0.242564262819 -0.35779612567 0.622450562612 0.215726380713 -0.285234064088 -0.022872904283 0.356631115376 0.231474636633 -0.0795654430514 0.793867428949 0.181839408337 -0.812220249401 -0.0745450344403 0.123995136035 0.538742423663 -0.127340671553 -0.49132764843 0.109642075242 0.349575370194 -0.627736371132 -0.64839499448 -0.180829826633 0.0885851040099 0.502879678389 0.624757430801 0.423916724976 0.302559907269 0.103496581509 0.377317630518 -0.0487409100267 -0.125018764312 -0.118071652096 -0.678517809411 -0.453369577051 0.675322373276 -0.69018395019 -0.155080343587 0.452516993595 0.0551679906784 0.162360846587 0.0713547285436 0.081789175131 0.172468131031 -0.28039780642 -0.837718917891 -0.742765374615 -0.640169116903 0.205537135942 0.275694131346 -0.23619901243 0.551039970682 0.164743963186
but -0.647836062444 0.411618980086 -0.351201974623 -0.0909514115951 -0.0542185643401 -0.0186480719373 -0.661125979408 -0.0130664291972 -0.323979012783 0.36386447646 -0.442484527829 -0.03723813178 -0.184224059279 -0.786243583344 -0.462448646552 -0.54155307032 -0.223551518023 0.333253292463 -0.176577220336 0.552739405878 -0.164722820514 -0.258485898012 0.0505672321782 -0.0939749090359 0.0544173497266 0.203787402102 -0.167341284573 -0.162237837437 -0.22849802185 0.07343634237 -0.440939007815 -0.904233004379 0.723170272645 0.169237516203 -0.763171970874 0.316329404717 0.282594201036 -0.172025079737 0.644374893797 -0.81012567171 0.015846656204 0.140260649298 -0.0280694119318 0.486656882442 0.861797494522 -0.621069737891 -0.00627886373855 -0.865097841129 0.148508003382 -0.103470897649 0.413339340363 -0.257043138253 0.729716756411 -0.078261989799 0.509694879184 -0.716692903457 0.00176796590387 -0.862239973767 0.813138645896 -0.381586767766 0.0179850503025 0.0814433720041 0.345830083067 0.771342499755 -0.24051423264 0.035762913577 -0.256297779599 0.446257014127 -0.780747198399 0.494954595399 -0.541153591983 0.289124541014 -0.368471722568 -0.103262954933 -0.342182103641 0.303311709284 -0.284304883953 -0.376030993577 0.55518280294 -0.234612846707 0.0868838072408 -0.191842917421 0.0892395648921 -0.434797431293 0.279507550469 0.424165233954 -0.397619975752 -0.0185877705884 0.812610055239 0.204491275803 -0.0531827261747 0.177805964064 0.206797665506 -0.0874590588492 -0.0633608265023 0.122417789257 0.00657956705844 -0.442139030335 0.635561169928 -0.136441887051
up 0.177053505217 0.586997731187 -0.153345346174 0.0899313168893 0.131126531687 -0.153913335953 -0.657641648915 0.488956003584 -0.398172969244 -0.0913936239577 -0.295447441455 -0.043894010045 -0.573710859132 0.0299325063605 -0.224538492296 0.326944770612 -0.295055272895 -0.201524128144 0.553690927973 -0.511726856793 0.0852770723097 0.669575811845 -0.00322689421314 0.742155026745 -0.351648615085 0.217904545787 -0.4776594992 0.35273561391 -0.472264700417 0.222202727119 0.576803536364 -0.0199487682074 0.305851530348 -0.606874237342 -0.315267732541 0.057013816486 0.0284719972194 -0.279060881697 -0.186268621292 0.243825021292 0.0389223155795 -0.425062935059 -0.642121919336 -0.00591216689772 -0.0120036922789 0.681122077541 -0.720271013526 -0.36301234588 0.542233779248 -0.0343837798219 -0.496175858903 0.484015818042 0.427735691188 0.478976781195 -0.191774333351 -0.227782095503 0.021163930935 -0.215335786795 -0.299510911605 0.74391493585 0.00133827093305 0.134814059633 0.602461654662 -0.423957640573 -0.185604631729 0.212615014291 -0.0529590645418 0.792538905429 0.0989776712499 -0.422156706178 -0.353575699499 0.743225127651 -0.555191032106 -0.241778034197 0.122438243468 0.60522807622 0.178790950397 -0.00391179452099 0.183325814283 0.433148006974 -0.226204430389 -0.31531373624 -0.276677091336 -0.320037534149 0.210889040782 -0.38864254957 -0.353464517743 0.576050680924 0.345269217995 0.328295412381 -0.113338554285 0.169554949772 -0.446355028405 -0.202757239733 0.393337433032 0.243966776436 0.772733123779 -0.0876166137204 -0.605180633124 -0.24480492482
people -0.108345707751 -0.647489705613 0.140541944764 -0.472125557454 -0.426484402637 -0.530686264995 -0.285381810792 0.693070036671 0.698111446413 0.772361110527 0.295519435008 0.187087819483 0.481246108812 0.934059217692 -0.275095674884 -0.38257209963 0.28094321771 -0.878078281981 -0.295794215945 -0.310480803457 -0.717972871816 -0.313410605409 -0.405949642278 -0.420578440663 -0.672091083525 -0.276908150827 -0.222328193655 -0.44586495037 0.426549099663 0.463101283908 0.572371719811 -0.440015454934 0.310574992407 0.387995020633 0.054526364224 -0.00627235984288 0.0718527653538 0.320803340429 -0.120676630866 -0.267817733914 -0.143587891067 0.253165150884 -0.449642592128 0.469927108858 0.606707686391 -0.175022161683 -0.186381114091 0.443106380495 -0.467810880361 0.204656084706 0.0912960897715 -0.258059813608 0.242220037622 -0.210096007659 -0.00681934585094 0.61737997125 0.414809379978 -0.395830601838 -0.502693405359 0.86950559808 -0.767418788614 -0.0843396643641 -0.746750856652 -0.0183457208741 -0.511316341707 0.121618029531 0.440692701488 0.348097091919 -0.238879401972 -0.0529524761438 -0.103749783561 0.228693219879 -0.392485901356 -0.133099987588 0.599233072988 -0.217005500551 -0.247045806437 0.101191167833 -0.391508936741 -0.272066595072 0.427708653793 -0.704508599606 -0.0140027540754 -0.395035331881 -0.103563127071 0.346504451635 -0.143157159111 0.138308985372 0.517871343156 -0.475831079546 -0.472916687288 0.513277958913 -0.570403244473 -0.265536639957 -0.75934777522 -0.191312998957 -0.155683445875 0.0736559746573 -0.224082558052 0.176704246601
no 0.774538244854 0.177257704463 -0.0550145163555 0.866496520311 -0.752662889125 -0.192912248242 -0.0301462114553 0.616264192512 0.256499942922 0.207050855418 0.702156204651 0.680910203966 -0.00411691102318 -0.0384196218774 -0.442127398597 0.388247185928 -0.174863410636 0.122996719662 -0.263805713958 0.166532781272 -0.70349446807 -1.01933350781 -0.271533996667 -0.576564441343 0.689435363826 -0.273915222683 -0.291528563683 0.0345620948868 0.0891898796987 -0.736554561969 0.234689219262 0.2148862129 -0.487743310607 0.283514413421 -0.51736179336 0.212137529749 -0.631783757906 0.0959022343818 -0.226218113315 0.45998406703 -0.275613228859 0.422925448004 0.0158909531522 -0.556756516353 0.144064556562 0.551095872006 0.128972533849 -0.0220666098176 -0.404942108952 -0.101488536189 -0.187991698324 0.020018660067 -0.103913722117 -0.480560966699 -0.282950588951 -0.618581151538 0.0285222329908 0.0951713761312 0.376187744581 0.612370074721 0.567382059629 -0.283546567693 -0.216948576659 -0.506045867202 -0.470371243955 -0.0893472171615 -0.00801222678153 -0.259871628181 0.152299219001 0.143059868288 0.0449197162967 -0.103342679267 -0.0413743772679 0.404344074368 0.387367357265 -0.12433861629 -0.265238185334 -0.707909904323 -0.39479276343 0.0195432396095 0.283345440594 0.168443999846 0.266112840606 0.332662841652 0.0500808863211 -0.00838996510103 -0.050680995885 -0.307945484311 -0.463132970227 0.0734185800718 0.111890242877 0.00636760697113 0.413802468902 -0.596443556765 -0.589725808286 -0.187175848878 0.463176671758 -0.327849015151 0.648714719422 -0.247917126306
new -0.613324844381 -0.223211645867 0.476181553598 0.279471919252 0.641592518312 -0.523253504227 -0.0696857432151 0.0554155513822 -0.255736442108 0.308196868518 -0.596986012587 -0.59854179045 0.342583008577 -0.0321288932246 -0.223562570606 0.0671917151074 0.293592676754 0.254013352451 0.0619801120463 0.0993031767675 -0.482809508778 -0.14360133706 -0.467204322614 0.0739546453066 -0.550152673184 -0.594874197709 -0.861130134355 0.0552215924293 0.677959040575 0.569533597968 -0.379242466004 0.735988139719 -0.0315413981111 0.509048338771 -0.608229195302 -0.153204733449 -0.517440601494 0.383120724824 -0.69817542355 0.716557973563 0.213992381452 -0.156471800043 -0.386369637166 -0.186732355101 -0.0845920572091 -0.0609360503152 -0.395039697972 0.315577391815 -0.347699541695 0.206202738964 -0.0578129165064 -0.662840918421 0.159799327556 -0.0200774732358 -0.697855895987 0.205022409968 -0.124437017591 0.0530493344904 0.184851937764 -0.468628271322 -0.0637929243508 0.0911613424682 0.250002838695 0.970433830097 -0.103985014775 -0.213068582541 0.161798267348 -0.691319681543 -0.12026631291 -0.546585180342 -0.213163588795 0.0641735426523 -0.193010266027 -0.169854879389 -0.264576573119 -0.725921543006 -0.74801385907 -0.250428338152 -0.0516054138248 -0.0991346299037 -0.914338356896 -0.336945077618 -0.864242663219 -0.113531210384 -0.548691436571 0.0415398041544 -0.488335316963 -0.301676204432 -0.444007253921 0.126201210442 -0.387667395253 0.370183741542 0.448523200076 0.253292648404 0.0391434577954 0.154227032436 -0.416862842257 0.156051706579 -0.328464021939 0.424304454054
proverbs<number> 0.857446959641 0.520148238935 0.207488780441 -0.0302514871167 0.590827565329 -0.49265287704 0.560350204899 0.0122185252289 -0.269785464167 0.05551227019 -0.242044997344 -0.147852192692 0.0911728830191 -0.208704885017 -0.408953628549 -0.138827618235 -0.00176444141251 0.378313864201 0.351535891588 0.426062789113 -0.193236501095 0.167798531215 -0.070534664972 -0.239540985703 0.499506769034 0.0304840874298 0.00593844731393 -0.0389907693919 0.127068512689 -0.104011961142 -0.35286975062 -0.651440776126 -0.0360086145459 0.269470986285 -0.328880546949 -1.00194332044 0.41130587265 -0.564271082839 0.148484605569 0.42882286585 0.318029930743 -0.336672070124 -0.646213687256 -0.440944885344 -0.682424941017 -0.045610920375 0.416305721158 -0.466867492358 0.230370570938 -0.803820408852 0.35412997316 -0.293769298161 0.490894218069 0.225162573896 -0.703020434941 -0.300620367558 -0.538734132267 0.57365609025 -0.06385472644 -0.354730578943 -0.289932448693 -0.224049408254 -0.180247757016 -0.0729889399126 0.245105063256 -0.76600672309 -0.110260542024 0.413643757302 -0.112255517578 -0.0410891976993 0.30388876863 -0.769673620724 0.645088517867 -0.284438887808 0.353688297739 0.63614519706 0.109184435097 -0.0794414502573 0.603650431297 0.212568505057 0.581024863405 -0.222513852121 -0.290407041574 0.641827553975 -0.0681933851769 0.134134069081 0.158683413249 0.559253065016 0.280540338692 -0.205671349459 -0.478643027826 0.190260680758 0.265743844666 -0.152074268823 -0.454294639946 0.475145903578 0.680126718679 0.487378954393 -0.3129151093 0.138247827042
they -0.0471349429001 -0.499306274798 0.741512569491 -0.0509290207007 -0.285027371329 0.00136457206168 0.443538752388 0.963133442724 -0.17611125937 -0.232494251672 0.496001145635 -0.887000116563 -0.252314337919 -0.347129433081 -0.363667870326 0.049583848719 0.855796490798 -0.353535329677 0.232337426976 -0.551781808928 0.286613342 0.0814214332763 -0.723068479967 -0.159571367231 0.637032285083 0.482604776406 -0.298393908658 -0.656824485691 -0.808262479967 0.680767612114 -0.510050090487 -0.197416373537 0.181354514012 0.0806965397982 0.0249853211067 0.352097444434 0.252523248359 -0.0553852311634 0.338018354447 0.727134646401 -0.396616389482 0.0662029954568 0.0965216875176 -0.210278863249 0.0847736124708 -0.514177360729 -0.652394172182 0.280215493303 -0.510880417759 0.172270534823 0.0296751889434 -0.0898570388647 0.773802804687 -0.601262976795 -0.333181592756 -0.308596117806 0.000388925101832 0.197768410687 -0.0427451303067 0.242503252469 0.137261777857 0.17971787615 -0.0837732701786 0.888288791165 -0.575666323761 -0.253399324106 -0.584027513374 -0.699345921048 -0.778902424937 0.590980204481 0.665310471362 -0.657708139564 0.750972837506 -0.240868505351 0.229026130147 0.330770247713 0.00364956629128 0.734757498006 -0.193790397091 0.632654619166 -0.0576200229607 -0.693009891554 -0.0299821890436 -0.162798925551 0.213822249495 0.236991541815 -0.674200460801 -0.0140368437334 -0.305842430008 -0.252457690651 -0.0419234819764 -0.410197444742 -0.538210714295 -0.244768638442 -0.292922751497 -0.217626268982 0.283625753078 0.686654113935 -0.748702022294 0.185999389435
who -0.67683122433 0.151722580933 0.0642146092929 0.126145500955 0.0261592914578 0.0670918787681 -0.516221793439 -0.251836201611 0.770989304523 -0.570084777038 0.103928256103 0.283781868416 -0.197356187007 -0.181762624335 0.44475933375 0.152072669645 -0.0569297720181 -0.535959540511 -0.362708224669 0.659183401126 -0.759977657635 -0.320033753546 -0.517174053765 -0.02649666152 -0.425345175096 0.675797081409 0.188178105178 -0.692091159579 0.16947021044 -0.214594716037 0.150890452556 -0.174260030075 -0.148195607123 -0.271054687312 0.215923425683 0.486490930314 0.407741472222 -0.72849320674 0.574338407169 -0.172171543248 -0.194671864947 -0.362976423568 -0.319299568336 -0.64178498502 0.841829670272 0.275505848712 0.431808544168 0.516835260634 -0.44118576386 0.22883426016 0.123508601592 -0.816066659609 0.198918614519 -0.636673164604 -0.132500074741 -0.173213878816 0.0164404476687 -0.125056499129 -0.372588985128 0.334974239528 0.156208205226 0.593604759073 0.270592146547 -0.250235812611 -0.468685613782 0.378299437961 0.128374815176 0.218394279876 -0.17016522447 0.0395796838256 0.113586385276 0.164368786108 0.0660590253808 0.360632292871 0.455551935314 0.0107057716898 0.775985912192 -0.664036424356 -0.272541268676 -0.0880064122105 0.728845875419 -0.802498614999 -0.793057812075 0.586987875547 -0.264912058061 0.517906357791 -0.338548413409 -0.137049352825 -0.23275077418 -0.364991445747 -0.560118665991 -0.0779758247648 0.155637360908 -0.311691696362 -0.415763645326 -0.125567515046 0.319414921573 -0.863376396958 0.366633092201 -0.639305854485
not 0.195925245365 -0.186761066857 0.0627226888272 0.0221505275053 0.452510630049 -0.254025226917 0.742455428998 0.649044706244 -0.245399701894 -0.500817162305 -0.587626115785 -0.493036315918 0.485649591357 0.0427430703002 0.00200701543753 -0.214327540589 0.403766270865 -0.392077249083 -0.713784864124 -0.543742796234 -0.677343335539 -0.255184495433 -0.122512057205 0.513795301912 0.405139145256 -0.0657231487371 0.605121813523 0.0733465804938 0.390176027525 0.0937100843281 -0.0904113317661 0.615752396134 -0.086791100979 0.363127337877 0.377046693832 0.10446636789 -0.726650877263 0.0959922175818 0.137771063125 0.456375400822 -0.44822305107 0.648969072029 -0.754400914546 -0.411351484005 -0.816130325073 -0.562219509469 0.463541675828 -0.484308209246 -0.472443800497 -0.0263042953919 0.20775158553 -0.0740576549027 0.724706641754 -0.106348236435 0.282778636636 0.17064292183 -0.0610960855354 -0.589616748023 0.416409459453 -0.49134310559 0.524141844012 0.0820366707357 -0.0895742929617 0.53345454051 -0.000392822760849 0.240695047941 0.189165810468 -0.717195172304 -0.269081046928 0.38475255523 -0.206431047215 -0.29026438736 -0.753922767467 0.188952559471 0.644427013119 -0.502054110942 -0.0515762921413 -0.392660664701 0.276304706955 -0.0284096805606 0.0983072630344 0.356116602746 0.499856585034 -0.0834033375767 0.195359014229 0.0622447070284 -0.353322974711 -0.590458767806 -0.00568441568305 0.467328974296 -0.129709966362 -0.16442378052 0.39869041885 -0.501915509727 -0.190967232364 0.567993211815 -0.154042657005 0.161909011414 -0.285136539204 -0.304002966343
be -0.387793880046 -0.147467850049 -0.215250532775 -0.0222492547626 0.265792709752 -0.492690357965 0.715632383222 0.426075211533 0.839608632492 -0.227626097181 0.289333474665 -0.0219371232771 0.220386950862 0.152277959597 -0.0288455043921 -0.395862917199 -0.209776536557 0.329118872247 0.210246987141 0.156481276688 0.904015221397 0.513342727945 -0.33893466316 -0.114096274921 -0.0587782711149 0.329135647631 -0.109683351825 0.200934040451 -0.118343798065 -0.65228432126 -0.732864335838 -0.474101849565 0.219927614145 -0.309204712922 -0.220629468551 -0.0396136265396 -0.070853011194 0.050735035445 0.438853638517 0.293079962393 0.412206013421 -0.00552240000546 0.44783383266 -0.352386454267 0.109297168745 -0.267319221218 0.0997034883836 -0.213089839946 0.539731754177 -0.609121925858 -0.152586377959 0.240190297572 -0.342602625312 0.488040132803 -0.415620432297 -0.489279298418 -0.868314120027 -0.0664474097883 0.406806174935 -0.576081625014 0.52442124393 0.26379848919 0.595859908119 0.452681699265 0.0100178055589 0.654435580006 -0.681354624804 0.114112122038 -0.00223057730073 -0.154268480767 0.375737276268 0.588613624324 -0.425291545669 0.465822687059 -0.114285732838 -0.361069868858 0.499168986521 0.522290000966 0.256046955308 -0.515623966084 0.276065889281 -0.0618712294607 0.517884976465 0.0433454041359 0.409557278871 -0.098238600396 0.463274799869 0.0813624070357 -0.14106716769 0.125025856994 0.504089954369 0.201175786466 -0.687406290535 0.57667206504 0.0255545009578 -0.535969473785 -0.161291838176 0.0101743100409 -0.161615825136 0.58064113496
will 0.524519017236 0.15616644278 -0.15356649051 0.28139569957 0.564194728141 -0.476779271709 0.260268714095 0.601761940072 0.0228130594583 0.0734440900122 -0.159012081018 0.24495170354 -0.365900734867 0.0389631667994 0.288989752253 -0.273902714745 -0.544033699575 -0.842682250823 -0.177882485424 0.726233302105 -0.432783754973 -0.623840721278 0.193072749911 0.426742966952 -0.171302969619 0.392013018161 0.244518647375 -0.663156201663 -0.113493203574 0.529884879183 0.00232655285904 -0.013810580103 0.237448909275 0.177288592465 -0.0219713479509 -0.445735839434 0.145131780071 -0.385427231025 0.312877894781 0.780251042432 0.734874291342 -0.371783419555 -0.11260907502 0.124627026339 -0.486259188541 0.516272514027 -0.0567513643421 -0.0462579290669 0.804317345956 0.738620252063 -0.71611729372 -0.147985589896 -0.195570181484 0.0334901842125 0.153078874748 0.0868106991974 -0.0787074094611 -0.505644043356 -0.189409238887 -0.164739513988 -0.150393291379 0.277504565638 0.0132515000364 0.00810219088268 -0.70352924488 -0.609587152669 0.283901680544 0.203063682239 0.17008514768 -0.793598657728 -0.243045560511 -0.269289974293 0.00849479150185 0.185018667073 -0.247842524657 -0.22159484481 0.368969976237 0.357263476084 0.471683423856 -0.429658641643 0.445317928966 0.168047353189 0.322181870019 -0.333006667718 -0.351848872759 0.792924558736 0.253306780276 -0.292251372495 -0.0056801698686 0.255871418758 -0.22930877974 0.354327509181 -0.312019378368 -0.266934972828 -0.156301542147 0.408857416569 -0.155059045615 -0.3175864916 0.307163058981 0.0192169711029
via -0.193059477454 -0.454151471158 -0.115512529325 0.196520646995 0.211479440253 0.824891457819 -0.225076828358 0.183872659567 0.675962975985 0.128944266568 0.388066857676 -0.424671930598 -0.316605926704 -0.0945229371784 -0.0541396434651 -0.47519532088 -0.0561835259545 -0.146830802915 0.0837994694897 0.519287021449 0.0540865653211 0.129201140758 0.0836598348657 0.394845028 0.0896571531883 0.0525640814273 0.262897086866 -0.315403124882 0.0914980864172 0.144081620628 0.425816776813 -0.135495303736 0.0403413776788 0.762423311837 0.65663041365 -0.39183176904 -0.551939949261 -0.885684972879 0.63651088817 0.186096689157 0.250235849666 0.5050527837 0.347362165511 -0.519843267968 0.0678407593428 0.235447499786 -0.542655491397 0.268567514922 -0.0890975465877 -0.659532826437 -0.234729514874 0.0671977426261 0.56404460776 0.136845141752 -0.212699727942 -0.181892551859 -0.602593258123 0.20289230018 -0.437587574054 0.0744206666471 0.156086810939 -0.705646433479 0.485513305517 0.0509434216984 0.0272424661511 0.213964287984 -0.0165919017356 -0.0261684793558 -0.534850748215 -0.202601598169 -0.418698052046 0.654759619547 0.0441688223753 0.215556743194 -0.00175925411954 0.620014600078 0.267278633843 0.495960983166 -0.0341491410712 0.434975456487 -0.135645574403 -0.0700454943032 -0.384570009888 0.219341916992 0.198757684142 0.189934411262 0.207376012989 0.821103837127 -0.232029691979 0.778469989775 0.418674935333 -0.139743523811 -0.154165532047 0.145237737837 -0.742837217333 -0.212356731929 -0.380422902477 -0.0202392484643 0.699969241327 0.0386520687255
